<?xml version="1.0" encoding="ISO-8859-1"?>
<smile version="1.0" id="Unnamed" numsamples="1000" discsamples="10000">
	<nodes>
		<cpt id="year_posted">
			<state id="s2005" />
			<state id="s2006" />
			<state id="s2007" />
			<state id="s2008" />
			<state id="s2009" />
			<state id="s2010" />
			<state id="s2011" />
			<state id="s2012" />
			<state id="s2013" />
			<probabilities>4.878649211315131e-008 0.005909357008050131 0.05303770008878052 0.09454971212880209 0.1595526392173535 0.1846063594250371 0.2198183131672201 0.2541511890073792 0.02837468117088534</probabilities>
		</cpt>
		<cpt id="region">
			<state id="Africa" />
			<state id="Asia" />
			<state id="Cambodia" />
			<state id="CentralAmerica" />
			<state id="Europe" />
			<state id="FormerSoviet" />
			<state id="Kenia" />
			<state id="MiddleEast" />
			<state id="Nicaragua" />
			<state id="Peru" />
			<state id="Philipines" />
			<state id="QS" />
			<state id="SouthAmerica" />
			<state id="USA" />
			<state id="GZ" />
			<parents>year_posted</parents>
			<probabilities>0.07142857142857145 0.07142857142857145 0.07142857142857145 0.07142857142857145 0.07142857142857145 0.07142857142857145 0.07142857142857145 0.07142857142857145 0.07142857142857145 0.07142857142857145 0.07142857142857145 0.07142857142857145 0.07142857142857145 0.07142857142857145 0 0.3388429752066116 0.008264462809917356 0.008264462809917356 0.2727272727272728 0.04958677685950414 0.04958677685950414 0.1570247933884298 0 0 0 0 0 0.115702479338843 0 0 0.216390423572744 0.1252302025782689 0.0561694290976059 0.1270718232044199 0.003683241252302026 0.1500920810313076 0.08747697974217311 0.02486187845303867 0.02117863720073665 0.06906077348066297 0 0 0.1187845303867403 0 0 0.2696280991735537 0.0893595041322314 0.1275826446280992 0.06456611570247933 0.0118801652892562 0.1089876033057851 0.008780991735537189 0.03460743801652891 0.05630165289256198 0.1632231404958678 0.002582644628099173 0.003615702479338842 0.05888429752066115 0 0 0.2531374349556168 0.04468931741659014 0.09090909090909091 0.04958677685950414 0.0003060912151821243 0.09550045913682279 0.01989592898683808 0.04775022956841139 0.056626874808693 0.120599938781757 0.1594735231098868 0.01469237832874197 0.04560759106213651 0.001224364860728497 0 0.1698412698412699 0.03544973544973545 0.0806878306878307 0.05846560846560847 0 0.06428571428571429 0.07010582010582012 0.04338624338624339 0.06851851851851853 0.1071428571428572 0.1955026455026455 0.01190476190476191 0.0925925925925926 0.002116402116402117 0 0.1493001555209953 0.03154854476782937 0.04910019995556543 0.08575872028438125 0 0.07398355920906465 0.1108642523883581 0.04976671850699844 0.05309931126416351 0.1170850922017329 0.1721839591201955 0.009775605421017552 0.09531215285492113 0.002221728504776716 0 0.1410453497309762 0.05591852421214451 0.04707916986933129 0.08781706379707918 0.004803996925441968 0.08627978478093774 0.1243274404304381 0.06398923904688701 0.03516525749423521 0.07820906994619524 0.1735203689469639 0.01229823212913144 0.08685626441199079 0.002690238278247503 0 0.1308089500860585 0.05851979345955249 0.05163511187607573 0.09122203098106713 0.01032702237521515 0.07917383820998279 0.1325301204819277 0.04647160068846815 0.05163511187607573 0.09294320137693631 0.1841652323580034 0.001721170395869191 0.06712564543889846 0.001721170395869191 0</probabilities>
		</cpt>
		<cpt id="sector">
			<state id="Agriculture" />
			<state id="Arts" />
			<state id="Clothing" />
			<state id="Construction" />
			<state id="Education" />
			<state id="Entertainment" />
			<state id="Food" />
			<state id="Health" />
			<state id="Housing" />
			<state id="Manufacturing" />
			<state id="Personal_Use" />
			<state id="Retail" />
			<state id="Services" />
			<state id="Transportation" />
			<state id="Wholesale" />
			<parents>region</parents>
			<probabilities>0.09522539343825019 0.01013603627634036 0.1026940517471326 0.01333688983728995 0.008802347292611363 0.0005334755934915978 0.3774339823953055 0.01547079221125633 0.01547079221125633 0.00746865830888237 0.002934115764203788 0.2723392904774607 0.06428380901573753 0.01040277407308616 0.003467591357695386 0.2790917691579943 0.05298013245033113 0.04162724692526017 0.01702932828760644 0.007568590350047304 0.003784295175023652 0.2667928098391675 0.004730368968779565 0.004730368968779565 0.03500473036896878 0.002838221381267739 0.1466414380321665 0.1097445600756859 0.021759697256386 0.005676442762535478 0.4079601990049752 0.05614783226723526 0.007818052594171999 0.01918976545842218 0.006396588486140726 0 0.1940298507462687 0.001421464108031272 0.04975124378109453 0.01918976545842218 0.08102345415778253 0.04335465529495381 0.03198294243070363 0.07675906183368871 0.004975124378109454 0.1447619047619047 0.05142857142857141 0.1219047619047619 0.02603174603174603 0.01142857142857143 0.001269841269841269 0.2698412698412698 0.01142857142857143 0.04634920634920633 0.0146031746031746 0.004444444444444444 0.231111111111111 0.05968253968253967 0.005714285714285713 0 0.5076923076923078 0 0.04615384615384615 0.01538461538461538 0 0.01538461538461538 0.1230769230769231 0 0.07692307692307693 0.03076923076923077 0.01538461538461538 0.06153846153846154 0.07692307692307693 0.03076923076923077 0 0.3959160521837776 0.006806579693703913 0.1100397050482133 0.007373794668179239 0.01191151446398185 0.0005672149744753261 0.1423709585933068 0.004537719795802609 0.03119682359614293 0.01644923425978445 0.01191151446398185 0.1486103233125354 0.0606920022688599 0.04878048780487804 0.002836074872376631 0.2897862232779098 0.007719714964370547 0.0819477434679335 0.01484560570071259 0.01306413301662708 0.001781472684085511 0.2262470308788599 0.01247030878859858 0.01247030878859858 0.01068883610451307 0.00653206650831354 0.1834916864608076 0.09916864608076011 0.03503562945368172 0.00475059382422803 0.04709418837675351 0.02104208416833667 0.06513026052104208 0.03106212424849699 0.03507014028056112 0.006012024048096192 0.2164328657314629 0.001002004008016032 0.04008016032064128 0.02404809619238477 0.01703406813627255 0.219438877755511 0.248496993987976 0.0250501002004008 0.003006012024048096 0.1196498054474708 0.00583657587548638 0.05933852140077819 0.04280155642023346 0.01459143968871595 0.00583657587548638 0.1770428015564202 0.01556420233463035 0.1916342412451361 0.00875486381322957 0.02140077821011673 0.2684824902723735 0.05642023346303501 0.01264591439688716 0 0.2258953168044077 0.0472910927456382 0.04545454545454546 0.02617079889807163 0.01147842056932966 0.002754820936639119 0.2681359044995409 0.005050505050505051 0.01974288337924702 0.008264462809917356 0.007805325987144169 0.2254361799816345 0.06060606060606061 0.04224058769513315 0.003673094582185491 0.2563934426229508 0.006885245901639343 0.02032786885245902 0.002295081967213114 0.0006557377049180327 0.001967213114754098 0.2478688524590163 0.001967213114754098 0.00360655737704918 0.01245901639344262 0.003278688524590164 0.3586885245901639 0.03409836065573769 0.04885245901639344 0.0006557377049180327 0 0 0.03827751196172249 0 0 0 0.6650717703349283 0.004784688995215311 0 0.009569377990430622 0 0.2679425837320574 0.01435406698564593 0 0 0.1545346062052506 0.02804295942720764 0.07696897374701671 0.01670644391408115 0.01252983293556086 0.002983293556085918 0.2153937947494033 0.004176610978520286 0.0220763723150358 0.01431980906921241 0.003579952267303103 0.2869928400954654 0.1318615751789976 0.02923627684964201 0.0005966587112171837 0 0.05405405405405406 0.05405405405405406 0.05405405405405406 0.05405405405405406 0.02702702702702703 0.1351351351351352 0.02702702702702703 0 0.05405405405405406 0 0.1351351351351352 0.2972972972972973 0.0810810810810811 0.02702702702702703 0.06666666666666668 0.06666666666666668 0.06666666666666668 0.06666666666666668 0.06666666666666668 0.06666666666666668 0.06666666666666668 0.06666666666666668 0.06666666666666668 0.06666666666666668 0.06666666666666668 0.06666666666666668 0.06666666666666668 0.06666666666666668 0.06666666666666668</probabilities>
		</cpt>
		<cpt id="funded_perc">
			<state id="Partial" />
			<state id="Full" />
			<probabilities>0.02290486423129517 0.9770951357687048</probabilities>
		</cpt>
		<cpt id="entries">
			<state id="s0" />
			<state id="s1" />
			<state id="s2" />
			<state id="s3_up" />
			<parents>region year_posted</parents>
			<probabilities>0.25 0.25 0.25 0.25 0.0975609756097561 0.2926829268292683 0.3414634146341463 0.2682926829268292 0.2595744680851064 0.548936170212766 0.1191489361702128 0.07234042553191492 0.3946360153256704 0.3888888888888889 0.1877394636015326 0.02873563218390805 0.460701330108827 0.3869407496977025 0.1330108827085852 0.01934703748488513 0.4968847352024923 0.4579439252336448 0.04205607476635514 0.003115264797507788 0.5699404761904762 0.3541666666666666 0.06845238095238095 0.00744047619047619 0.4782016348773842 0.4455040871934605 0.05858310626702997 0.01771117166212534 0.7236842105263159 0.2631578947368422 0 0.01315789473684211 0.25 0.25 0.25 0.25 1 0 0 0 0.2279411764705882 0.4926470588235294 0.2720588235294117 0.007352941176470588 0.5606936416184971 0.2601156069364162 0.1445086705202312 0.03468208092485549 0.5890410958904109 0.3424657534246575 0.0273972602739726 0.0410958904109589 0.8432835820895523 0.1417910447761194 0.00746268656716418 0.00746268656716418 0.4577464788732395 0.5000000000000001 0.01408450704225353 0.02816901408450705 0.5910652920962199 0.3848797250859106 0.02061855670103093 0.003436426116838488 0.9411764705882352 0.0588235294117647 0 0 0.25 0.25 0.25 0.25 0 0 0 1 0.01639344262295082 0.278688524590164 0.5901639344262295 0.1147540983606557 0.3562753036437247 0.3279352226720648 0.271255060728745 0.04453441295546558 0.585858585858586 0.3164983164983166 0.08754208754208756 0.0101010101010101 0.6 0.1540983606557377 0.2229508196721312 0.02295081967213115 0.7194570135746605 0.2579185520361991 0.02262443438914027 0 0.9020408163265307 0.0979591836734694 0 0 1 0 0 0 0.25 0.25 0.25 0.25 0.5757575757575757 0.2727272727272728 0.09090909090909091 0.0606060606060606 0.7898550724637682 0.1594202898550725 0.05072463768115942 0 0.368 0.464 0.144 0.024 0.506172839506173 0.3395061728395062 0.09876543209876545 0.05555555555555557 0.5520361990950226 0.3076923076923076 0.1085972850678733 0.03167420814479637 0.4637305699481866 0.4559585492227979 0.06476683937823834 0.0155440414507772 0.687089715536105 0.2669584245076587 0.03938730853391685 0.006564551422319475 0.8867924528301887 0.09433962264150946 0 0.01886792452830189 0.25 0.25 0.25 0.25 0.8333333333333333 0 0 0.1666666666666667 1 0 0 0 0.3043478260869565 0.6956521739130435 0 0 0 1 0 0 0.25 0.25 0.25 0.25 0.25 0.25 0.25 0.25 0.9200000000000002 0.04 0.04 0 1 0 0 0 0.25 0.25 0.25 0.25 0.1666666666666667 0.5 0.3333333333333333 0 0.4171779141104294 0.4049079754601227 0.1656441717791411 0.01226993865030675 0.2180094786729857 0.7156398104265402 0.06635071090047393 0 0.5096153846153846 0.3878205128205128 0.08974358974358974 0.01282051282051282 0.3703703703703704 0.4732510288065844 0.1193415637860082 0.03703703703703704 0.4774774774774775 0.4144144144144144 0.09609609609609611 0.01201201201201201 0.6035634743875278 0.3652561247216035 0.03118040089086859 0 0.6521739130434782 0.3478260869565218 0 0 0.25 0.25 0.25 0.25 0.2631578947368421 0.5789473684210525 0.1578947368421052 0 0.1052631578947368 0.3578947368421053 0.368421052631579 0.1684210526315789 0.1176470588235294 0.5294117647058824 0.1176470588235294 0.2352941176470588 0.2461538461538461 0.3384615384615385 0.1384615384615385 0.2769230769230769 0.7056603773584905 0.2566037735849056 0.0339622641509434 0.003773584905660377 0.531062124248497 0.3266533066132265 0.1422845691382766 0 0.6027820710973726 0.366306027820711 0.02936630602782072 0.001545595054095827 0.4935064935064935 0.4805194805194805 0.01298701298701298 0.01298701298701298 0.25 0.25 0.25 0.25 0.25 0.25 0.25 0.25 0.2962962962962963 0.6296296296296297 0.03703703703703704 0.03703703703703704 0.2537313432835821 0.626865671641791 0.1194029850746269 0 0.1410256410256411 0.717948717948718 0.1410256410256411 0 0.5304878048780488 0.3353658536585366 0.1219512195121951 0.01219512195121951 0.6964285714285714 0.08928571428571427 0.2008928571428571 0.01339285714285714 0.7897897897897898 0.2072072072072072 0.003003003003003003 0 1 0 0 0 0.25 0.25 0.25 0.25 0.25 0.25 0.25 0.25 0.4347826086956521 0.5217391304347825 0 0.04347826086956521 0.3486238532110091 0.4128440366972477 0.2293577981651376 0.009174311926605503 0.3513513513513513 0.4918918918918919 0.1513513513513513 0.005405405405405405 0.4942084942084942 0.4247104247104248 0.06563706563706565 0.01544401544401544 0.200836820083682 0.5439330543933055 0.2175732217573222 0.03765690376569039 0.7267759562841529 0.2295081967213115 0.04371584699453552 0 1 0 0 0 0.25 0.25 0.25 0.25 0.25 0.25 0.25 0.25 0.72 0.2533333333333333 0.02666666666666667 0 0.5284810126582279 0.3955696202531646 0.06962025316455696 0.006329113924050633 0.3781725888324873 0.5634517766497462 0.03553299492385786 0.02284263959390863 0.4395061728395062 0.4222222222222222 0.1234567901234568 0.01481481481481482 0.4459203036053131 0.4022770398481974 0.1233396584440228 0.0284629981024668 0.5061425061425061 0.4226044226044226 0.06142506142506143 0.009828009828009828 0.9444444444444444 0.05555555555555555 0 0 0.25 0.25 0.25 0.25 0.25 0.25 0.25 0.25 0.25 0.25 0.25 0.25 0 1 0 0 0.07677543186180422 0.7927063339731285 0.1228406909788868 0.007677543186180422 0.2110960757780785 0.6495263870094723 0.1353179972936401 0.004059539918809202 0.4632258064516129 0.4812903225806452 0.04387096774193549 0.01161290322580645 0.6677740863787375 0.3045404208194906 0.02436323366555925 0.003322259136212625 0.8691588785046729 0.1308411214953271 0 0 0.25 0.25 0.25 0.25 0.25 0.25 0.25 0.25 0.25 0.25 0.25 0.25 0 1 0 0 0.8541666666666665 0.1458333333333333 0 0 1 0 0 0 0.9772727272727273 0.02272727272727273 0 0 0.921875 0.078125 0 0 1 0 0 0 0.25 0.25 0.25 0.25 0 0.4285714285714286 0.2857142857142857 0.2857142857142857 0.2868217054263566 0.2713178294573644 0.1782945736434109 0.2635658914728682 0.2894736842105263 0.1052631578947368 0.3771929824561403 0.2280701754385965 0.3221476510067114 0.3087248322147651 0.3422818791946309 0.02684563758389262 0.2742857142857143 0.4142857142857143 0.2085714285714286 0.1028571428571429 0.4848484848484848 0.3496503496503496 0.1398601398601398 0.02564102564102564 0.7455752212389381 0.2256637168141593 0.02433628318584071 0.004424778761061947 0.9487179487179488 0.05128205128205128 0 0 0.25 0.25 0.25 0.25 0.25 0.25 0.25 0.25 0.25 0.25 0.25 0.25 0.25 0.25 0.25 0.25 0.25 0.25 0 0.5 0.125 0.625 0.25 0 0.7000000000000001 0.3 0 0 1 0 0 0 0 1 0 0 0.25 0.25 0.25 0.25 0.25 0.25 0.25 0.25 0.25 0.25 0.25 0.25 0.25 0.25 0.25 0.25 0.25 0.25 0.25 0.25 0.25 0.25 0.25 0.25 0.25 0.25 0.25 0.25 0.25 0.25 0.25 0.25 0.25 0.25 0.25 0.25</probabilities>
		</cpt>
		<cpt id="status">
			<state id="defaulted" />
			<state id="expired" />
			<state id="in_repayment" />
			<state id="paid" />
			<state id="refunded" />
			<parents>funded_perc entries year_posted</parents>
			<probabilities>0.2 0.2 0.2 0.2 0.2 0 0 0 0 1 0 0 0 0 1 0 0 0 0 1 0 0.5 0 0 0.5 0 0.25 0 0 0.75 0 0.06666666666666667 0 0 0.9333333333333334 0 0.9925925925925926 0 0 0.007407407407407408 0.2 0.2 0.2 0.2 0.2 0.2 0.2 0.2 0.2 0.2 0 0 0 0 1 0 0 0 0 1 0 0 0 0 1 0 0 0 0 1 0 0 0 0 1 0 0 0 0 1 0 0.4 0 0 0.6 0 0 0 0 1 0.2 0.2 0.2 0.2 0.2 0 0 0 0 1 0.2 0.2 0.2 0.2 0.2 0.2 0.2 0.2 0.2 0.2 0 0 0 0 1 0 0 0 0 1 0 0 0 0 1 0 0 0 0 1 0.2 0.2 0.2 0.2 0.2 0.2 0.2 0.2 0.2 0.2 0 0 0 0 1 0.2 0.2 0.2 0.2 0.2 0.2 0.2 0.2 0.2 0.2 0 0 0 0 1 0 0 0 0 1 0.2 0.2 0.2 0.2 0.2 0.2 0.2 0.2 0.2 0.2 0.2 0.2 0.2 0.2 0.2 0.2 0.2 0.2 0.2 0.2 0 0 0 1 0 0 0 0 1 0 0.00135685210312076 0 0 0.9986431478968794 0 0.0007936507936507937 0 0.01031746031746032 0.9888888888888888 0 0.01473187978786093 0 0.01119622863877431 0.9740718915733647 0 0.01199466903598401 0 0.02576632607729898 0.962239004886717 0 0.001295756397797214 0 0.4454162617427924 0.5532879818594105 0 0 0 0.9014675052410901 0.09853249475890984 0 0.2 0.2 0.2 0.2 0.2 0.2222222222222222 0 0 0.7777777777777778 0 0.06954436450839328 0 0 0.9304556354916067 0 0.03391959798994975 0 0 0.9660804020100503 0 0.02483660130718954 0 0 0.9751633986928104 0 0.03291639236339697 0 0.0006583278472679395 0.966425279789335 0 0.0220801859384079 0 0.0273097036606624 0.9506101104009297 0 0.007352941176470588 0 0.2959558823529412 0.6966911764705882 0 0 0 0.8775510204081634 0.1224489795918368 0 0.2 0.2 0.2 0.2 0.2 0.08333333333333334 0 0 0.9166666666666667 0 0.1683673469387755 0 0 0.8316326530612245 0 0.01863354037267081 0 0 0.9813664596273293 0 0.02168021680216802 0 0 0.9783197831978321 0 0.02891566265060241 0 0.004819277108433735 0.9662650602409639 0 0.03448275862068966 0 0.02758620689655172 0.9379310344827586 0 0.04790419161676646 0 0.1077844311377245 0.8443113772455089 0 0 0 1 0 0 0.2 0.2 0.2 0.2 0.2 0 0 0 1 0 0.3670886075949367 0 0 0.6329113924050633 0 0.2205882352941176 0 0 0.7794117647058824 0 0.0136986301369863 0 0 0.9863013698630138 0 0.02666666666666667 0 0.01333333333333333 0.9599999999999999 0 0.0303030303030303 0 0 0.9696969696969696 0 0.03703703703703704 0 0.1851851851851852 0.7777777777777778 0 0 0 0.6666666666666666 0.3333333333333333 0</probabilities>
		</cpt>
		<cpt id="borrower_count2">
			<state id="s1" />
			<state id="s2" />
			<state id="s3" />
			<state id="s4" />
			<state id="s5" />
			<state id="s10" />
			<state id="s20" />
			<state id="s21plus" />
			<probabilities>0.8657941004102364 0.009083805430748193 0.01675131861691737 0.01587224067200625 0.02192811095917171 0.03613987106856809 0.02969329947255324 0.004737253369798789</probabilities>
		</cpt>
		<cpt id="loan_amount">
			<state id="Below250" />
			<state id="s250_500" />
			<state id="s500_750" />
			<state id="s750_1000" />
			<state id="s1000_1500" />
			<state id="s1500_up" />
			<parents>region year_posted borrower_count2</parents>
			<probabilities>0.1666666666666667 0.1666666666666667 0.1666666666666667 0.1666666666666667 0.1666666666666667 0.1666666666666667 0.1666666666666667 0.1666666666666667 0.1666666666666667 0.1666666666666667 0.1666666666666667 0.1666666666666667 0.1666666666666667 0.1666666666666667 0.1666666666666667 0.1666666666666667 0.1666666666666667 0.1666666666666667 0.1666666666666667 0.1666666666666667 0.1666666666666667 0.1666666666666667 0.1666666666666667 0.1666666666666667 0.1666666666666667 0.1666666666666667 0.1666666666666667 0.1666666666666667 0.1666666666666667 0.1666666666666667 0.1666666666666667 0.1666666666666667 0.1666666666666667 0.1666666666666667 0.1666666666666667 0.1666666666666667 0.1666666666666667 0.1666666666666667 0.1666666666666667 0.1666666666666667 0.1666666666666667 0.1666666666666667 0.1666666666666667 0.1666666666666667 0.1666666666666667 0.1666666666666667 0.1666666666666667 0.1666666666666667 0 0.1951219512195122 0.2439024390243902 0.2439024390243902 0.3170731707317073 0 0.1666666666666667 0.1666666666666667 0.1666666666666667 0.1666666666666667 0.1666666666666667 0.1666666666666667 0.1666666666666667 0.1666666666666667 0.1666666666666667 0.1666666666666667 0.1666666666666667 0.1666666666666667 0.1666666666666667 0.1666666666666667 0.1666666666666667 0.1666666666666667 0.1666666666666667 0.1666666666666667 0.1666666666666667 0.1666666666666667 0.1666666666666667 0.1666666666666667 0.1666666666666667 0.1666666666666667 0.1666666666666667 0.1666666666666667 0.1666666666666667 0.1666666666666667 0.1666666666666667 0.1666666666666667 0.1666666666666667 0.1666666666666667 0.1666666666666667 0.1666666666666667 0.1666666666666667 0.1666666666666667 0.1666666666666667 0.1666666666666667 0.1666666666666667 0.1666666666666667 0.1666666666666667 0.1666666666666667 0.08 0.2311111111111112 0.2177777777777778 0.2577777777777778 0.2088888888888889 0.004444444444444445 0 1 0 0 0 0 0.1666666666666667 0.1666666666666667 0.1666666666666667 0.1666666666666667 0.1666666666666667 0.1666666666666667 0.1666666666666667 0.1666666666666667 0.1666666666666667 0.1666666666666667 0.1666666666666667 0.1666666666666667 0 0 0 0.1666666666666667 0.5 0.3333333333333333 0 0 0 0 0.3333333333333333 0.6666666666666666 0.1666666666666667 0.1666666666666667 0.1666666666666667 0.1666666666666667 0.1666666666666667 0.1666666666666667 0.1666666666666667 0.1666666666666667 0.1666666666666667 0.1666666666666667 0.1666666666666667 0.1666666666666667 0.1520618556701031 0.3144329896907216 0.2680412371134021 0.1365979381443299 0.1288659793814433 0 0 0.6818181818181818 0.2727272727272727 0.04545454545454545 0 0 0 0.3571428571428571 0.2857142857142857 0.1428571428571429 0.2142857142857143 0 0 0 0.4705882352941176 0.05882352941176471 0.3529411764705882 0.1176470588235294 0 0 0.1363636363636364 0.1363636363636364 0.3636363636363637 0.3636363636363637 0 0.03846153846153846 0 0.1538461538461539 0.3846153846153846 0.4230769230769231 0 0 0 0 0 1 0 0 0 0 0 1 0.0696969696969697 0.3348484848484849 0.3484848484848485 0.1424242424242424 0.1045454545454546 0 0 0.8181818181818181 0.1818181818181818 0 0 0 0 0.5 0.25 0 0.25 0 0 0.2307692307692308 0.3076923076923077 0.3076923076923077 0.1538461538461539 0 0 0.34 0.2 0.14 0.16 0.16 0 0.02439024390243903 0.07317073170731707 0.1707317073170732 0.1951219512195122 0.5365853658536585 0 0 0 0 0 1 0 0 0 0 0 1 0.1339491916859122 0.302540415704388 0.2678983833718245 0.1685912240184757 0.1270207852193996 0 0 0.2857142857142857 0.7142857142857143 0 0 0 0 0.125 0.25 0.25 0.375 0 0.05 0.05 0.4 0.2 0.3 0 0 0.3382352941176471 0.4117647058823529 0.1176470588235294 0.08823529411764705 0.04411764705882353 0 0.01694915254237288 0.1186440677966102 0.1525423728813559 0.3559322033898305 0.3559322033898305 0 0 0 0 0.04878048780487805 0.9512195121951219 0 0 0 0 0 1 0.1350762527233115 0.2570806100217865 0.2875816993464053 0.1873638344226579 0.1328976034858388 0 0 0.7142857142857143 0.2857142857142857 0 0 0 0 0.1428571428571429 0.2857142857142857 0.3571428571428571 0.2142857142857143 0 0 0.25 0.0625 0.3125 0.3125 0.0625 0 0.1081081081081081 0.2972972972972973 0.1891891891891892 0.1351351351351351 0.2702702702702702 0 0.01639344262295082 0.03278688524590164 0.08196721311475409 0.2622950819672131 0.6065573770491802 0 0 0 0 0.03174603174603174 0.9682539682539683 0 0 0 0 0 1 0.1575221238938053 0.2707964601769912 0.2230088495575221 0.1858407079646018 0.1504424778761062 0.01238938053097345 0.2 0.4 0 0.2 0 0.2 0 0.125 0.1875 0.375 0.1875 0.125 0 0.1875 0.0625 0.25 0.1875 0.3125 0 0 0.32 0.12 0.08 0.48 0 0.03389830508474576 0.0847457627118644 0.1525423728813559 0.1355932203389831 0.5932203389830508 0 0 0 0 0 1 0 0 0 0 0 1 0.2 0.2166666666666667 0.3 0.15 0.1166666666666667 0.01666666666666667 0.1666666666666667 0.1666666666666667 0.1666666666666667 0.1666666666666667 0.1666666666666667 0.1666666666666667 0.1666666666666667 0.1666666666666667 0.1666666666666667 0.1666666666666667 0.1666666666666667 0.1666666666666667 0 0 0.5 0 0.25 0.25 0 0 0 0 0 1 0 0 0 0 0.2 0.7999999999999999 0 0 0 0 0 1 0 0 0 0 0 1 0.1666666666666667 0.1666666666666667 0.1666666666666667 0.1666666666666667 0.1666666666666667 0.1666666666666667 0.1666666666666667 0.1666666666666667 0.1666666666666667 0.1666666666666667 0.1666666666666667 0.1666666666666667 0.1666666666666667 0.1666666666666667 0.1666666666666667 0.1666666666666667 0.1666666666666667 0.1666666666666667 0.1666666666666667 0.1666666666666667 0.1666666666666667 0.1666666666666667 0.1666666666666667 0.1666666666666667 0.1666666666666667 0.1666666666666667 0.1666666666666667 0.1666666666666667 0.1666666666666667 0.1666666666666667 0.1666666666666667 0.1666666666666667 0.1666666666666667 0.1666666666666667 0.1666666666666667 0.1666666666666667 0.1666666666666667 0.1666666666666667 0.1666666666666667 0.1666666666666667 0.1666666666666667 0.1666666666666667 0.1666666666666667 0.1666666666666667 0.1666666666666667 0.1666666666666667 0.1666666666666667 0.1666666666666667 0 0 0 1 0 0 0.1666666666666667 0.1666666666666667 0.1666666666666667 0.1666666666666667 0.1666666666666667 0.1666666666666667 0.1666666666666667 0.1666666666666667 0.1666666666666667 0.1666666666666667 0.1666666666666667 0.1666666666666667 0.1666666666666667 0.1666666666666667 0.1666666666666667 0.1666666666666667 0.1666666666666667 0.1666666666666667 0.1666666666666667 0.1666666666666667 0.1666666666666667 0.1666666666666667 0.1666666666666667 0.1666666666666667 0.1666666666666667 0.1666666666666667 0.1666666666666667 0.1666666666666667 0.1666666666666667 0.1666666666666667 0.1666666666666667 0.1666666666666667 0.1666666666666667 0.1666666666666667 0.1666666666666667 0.1666666666666667 0.1666666666666667 0.1666666666666667 0.1666666666666667 0.1666666666666667 0.1666666666666667 0.1666666666666667 0.3939393939393939 0.3106060606060606 0.09090909090909091 0.09848484848484848 0.1060606060606061 0 0.1666666666666667 0.1666666666666667 0.1666666666666667 0.1666666666666667 0.1666666666666667 0.1666666666666667 0.1666666666666667 0.1666666666666667 0.1666666666666667 0.1666666666666667 0.1666666666666667 0.1666666666666667 0.1666666666666667 0.1666666666666667 0.1666666666666667 0.1666666666666667 0.1666666666666667 0.1666666666666667 0 0 0 0 0.25 0.75 0.1666666666666667 0.1666666666666667 0.1666666666666667 0.1666666666666667 0.1666666666666667 0.1666666666666667 0.1666666666666667 0.1666666666666667 0.1666666666666667 0.1666666666666667 0.1666666666666667 0.1666666666666667 0.1666666666666667 0.1666666666666667 0.1666666666666667 0.1666666666666667 0.1666666666666667 0.1666666666666667 0.2890625 0.25 0.2265625 0.078125 0.15625 0 0.1666666666666667 0.1666666666666667 0.1666666666666667 0.1666666666666667 0.1666666666666667 0.1666666666666667 0 0 0.6666666666666667 0.3333333333333334 0 0 0 0 0.1111111111111111 0.4444444444444445 0.4444444444444445 0 0 0 0.1 0.2 0.6 0.1 0 0 0 0.4 0.4 0.2 0 0 0 0 0 1 0.1666666666666667 0.1666666666666667 0.1666666666666667 0.1666666666666667 0.1666666666666667 0.1666666666666667 0.04950495049504951 0.4851485148514852 0.2475247524752475 0.06930693069306931 0.1485148514851485 0 0 0 1 0 0 0 0 0 0.5 0.5 0 0 0 0 0.1666666666666667 0.5833333333333334 0.25 0 0 0 0.1666666666666667 0.3888888888888889 0.4444444444444444 0 0 0 0.0909090909090909 0 0.3636363636363636 0.5454545454545454 0 0 0 0 0 1 0.1666666666666667 0.1666666666666667 0.1666666666666667 0.1666666666666667 0.1666666666666667 0.1666666666666667 0.2166666666666667 0.6166666666666667 0.1 0.05 0.01666666666666667 0 0 0.6666666666666666 0.3333333333333333 0 0 0 0 0 0.4285714285714286 0.5714285714285714 0 0 0 0 0.3333333333333334 0.4166666666666666 0.25 0 0 0 0.07142857142857144 0.3571428571428572 0.5357142857142857 0.03571428571428572 0 0 0 0 0.5833333333333334 0.4166666666666667 0.1666666666666667 0.1666666666666667 0.1666666666666667 0.1666666666666667 0.1666666666666667 0.1666666666666667 0.1666666666666667 0.1666666666666667 0.1666666666666667 0.1666666666666667 0.1666666666666667 0.1666666666666667 0.01538461538461538 0.4769230769230769 0.4 0.04615384615384615 0.06153846153846154 0 0 0.6666666666666666 0.3333333333333333 0 0 0 0 0 0.625 0.25 0.125 0 0 0.1 0.2 0.5 0.2 0 0 0 0.04 0.32 0.64 0 0 0 0.07692307692307693 0.1153846153846154 0.3461538461538462 0.4615384615384615 0 0 0 0 0 1 0.1666666666666667 0.1666666666666667 0.1666666666666667 0.1666666666666667 0.1666666666666667 0.1666666666666667 0.07446808510638298 0.4946808510638298 0.2712765957446808 0.08510638297872339 0.07446808510638298 0 0 1 0 0 0 0 0 0 0.3333333333333333 0.5 0.1666666666666667 0 0 0 0.2 0.3 0.2 0.3 0 0 0.04545454545454546 0.1363636363636364 0.7272727272727273 0.09090909090909091 0 0 0 0.01694915254237288 0.2542372881355932 0.728813559322034 0 0 0 0 0 1 0.1666666666666667 0.1666666666666667 0.1666666666666667 0.1666666666666667 0.1666666666666667 0.1666666666666667 0.2962962962962963 0.3703703703703704 0.1481481481481481 0.1481481481481481 0.03703703703703704 0 0.1666666666666667 0.1666666666666667 0.1666666666666667 0.1666666666666667 0.1666666666666667 0.1666666666666667 0 0 0 1 0 0 0.1666666666666667 0.1666666666666667 0.1666666666666667 0.1666666666666667 0.1666666666666667 0.1666666666666667 0 0 0 1 0 0 0 0 0 0 0.3333333333333333 0.6666666666666666 0 0 0 0 0 1 0.1666666666666667 0.1666666666666667 0.1666666666666667 0.1666666666666667 0.1666666666666667 0.1666666666666667 0.1666666666666667 0.1666666666666667 0.1666666666666667 0.1666666666666667 0.1666666666666667 0.1666666666666667 0.1666666666666667 0.1666666666666667 0.1666666666666667 0.1666666666666667 0.1666666666666667 0.1666666666666667 0.1666666666666667 0.1666666666666667 0.1666666666666667 0.1666666666666667 0.1666666666666667 0.1666666666666667 0.1666666666666667 0.1666666666666667 0.1666666666666667 0.1666666666666667 0.1666666666666667 0.1666666666666667 0.1666666666666667 0.1666666666666667 0.1666666666666667 0.1666666666666667 0.1666666666666667 0.1666666666666667 0.1666666666666667 0.1666666666666667 0.1666666666666667 0.1666666666666667 0.1666666666666667 0.1666666666666667 0.1666666666666667 0.1666666666666667 0.1666666666666667 0.1666666666666667 0.1666666666666667 0.1666666666666667 0.1666666666666667 0.1666666666666667 0.1666666666666667 0.1666666666666667 0.1666666666666667 0.1666666666666667 0 0 1 0 0 0 0.1666666666666667 0.1666666666666667 0.1666666666666667 0.1666666666666667 0.1666666666666667 0.1666666666666667 0.1666666666666667 0.1666666666666667 0.1666666666666667 0.1666666666666667 0.1666666666666667 0.1666666666666667 0.1666666666666667 0.1666666666666667 0.1666666666666667 0.1666666666666667 0.1666666666666667 0.1666666666666667 0.1666666666666667 0.1666666666666667 0.1666666666666667 0.1666666666666667 0.1666666666666667 0.1666666666666667 0.1666666666666667 0.1666666666666667 0.1666666666666667 0.1666666666666667 0.1666666666666667 0.1666666666666667 0.1666666666666667 0.1666666666666667 0.1666666666666667 0.1666666666666667 0.1666666666666667 0.1666666666666667 0.1666666666666667 0.1666666666666667 0.1666666666666667 0.1666666666666667 0.1666666666666667 0.1666666666666667 0.08196721311475409 0.1147540983606557 0.3278688524590164 0.09836065573770492 0.3770491803278688 0 0.1666666666666667 0.1666666666666667 0.1666666666666667 0.1666666666666667 0.1666666666666667 0.1666666666666667 0.1666666666666667 0.1666666666666667 0.1666666666666667 0.1666666666666667 0.1666666666666667 0.1666666666666667 0.1666666666666667 0.1666666666666667 0.1666666666666667 0.1666666666666667 0.1666666666666667 0.1666666666666667 0.1666666666666667 0.1666666666666667 0.1666666666666667 0.1666666666666667 0.1666666666666667 0.1666666666666667 0.1666666666666667 0.1666666666666667 0.1666666666666667 0.1666666666666667 0.1666666666666667 0.1666666666666667 0.1666666666666667 0.1666666666666667 0.1666666666666667 0.1666666666666667 0.1666666666666667 0.1666666666666667 0.1666666666666667 0.1666666666666667 0.1666666666666667 0.1666666666666667 0.1666666666666667 0.1666666666666667 0.05333333333333333 0.2 0.4444444444444444 0.03555555555555556 0.2666666666666667 0 0 0 1 0 0 0 0.1666666666666667 0.1666666666666667 0.1666666666666667 0.1666666666666667 0.1666666666666667 0.1666666666666667 0.125 0.375 0.375 0 0.125 0 0.3333333333333333 0 0.3333333333333333 0.3333333333333333 0 0 0 0 1 0 0 0 0 0 0 0 0.2857142857142857 0.7142857142857143 0 0 0 0 0 1 0.08870967741935486 0.2419354838709678 0.3750000000000001 0.06451612903225808 0.2298387096774194 0 0 0.6666666666666666 0.3333333333333333 0 0 0 0 0.4 0.4 0.2 0 0 0 0.25 0.5 0 0.25 0 0 0 0.5 0 0 0.5 0 0.1111111111111111 0 0.4444444444444445 0.4444444444444445 0 0 0 0 0.05263157894736842 0.2631578947368422 0.6842105263157895 0 0 0 0 0 1 0.07630522088353414 0.2329317269076305 0.3895582329317269 0.07630522088353414 0.2248995983935743 0 0.1666666666666667 0.1666666666666667 0.1666666666666667 0.1666666666666667 0.1666666666666667 0.1666666666666667 0.1666666666666667 0.1666666666666667 0.1666666666666667 0.1666666666666667 0.1666666666666667 0.1666666666666667 0 0.5555555555555556 0.3333333333333334 0 0.1111111111111111 0 0 0 0.6666666666666666 0.3333333333333333 0 0 0 0 0.3636363636363636 0.0909090909090909 0.5454545454545454 0 0 0 0 0 0.07142857142857144 0.9285714285714285 0 0 0 0 0 1 0.04812834224598931 0.1176470588235294 0.3957219251336898 0.06951871657754011 0.3689839572192514 0 0.3333333333333333 0.6666666666666666 0 0 0 0 0.1666666666666667 0.1666666666666667 0.1666666666666667 0.1666666666666667 0.1666666666666667 0.1666666666666667 0 0.75 0.25 0 0 0 0 0 1 0 0 0 0 0 0.3333333333333334 0 0.4444444444444445 0.2222222222222222 0 0 0 0 0.07142857142857143 0.9285714285714286 0.1666666666666667 0.1666666666666667 0.1666666666666667 0.1666666666666667 0.1666666666666667 0.1666666666666667 0.05454545454545455 0.1393939393939394 0.2606060606060606 0.06060606060606061 0.4121212121212121 0.07272727272727272 0.1666666666666667 0.4285714285714286 0.4047619047619048 0 0 0 0.08695652173913045 0.1739130434782609 0.3043478260869565 0.3478260869565218 0.08695652173913045 0 0.1 0 0.1 0.3 0.5 0 0 0 0.3333333333333333 0 0.6666666666666666 0 0 0.5 0 0 0.5 0 0.1666666666666667 0.1666666666666667 0.1666666666666667 0.1666666666666667 0.1666666666666667 0.1666666666666667 0.1666666666666667 0.1666666666666667 0.1666666666666667 0.1666666666666667 0.1666666666666667 0.1666666666666667 0 0.1428571428571429 0.07142857142857143 0.1428571428571429 0.5714285714285714 0.07142857142857143 0.2 0.2 0.6 0 0 0 0 0.4 0 0.4 0.2 0 0 0 0 1 0 0 0.1666666666666667 0.1666666666666667 0.1666666666666667 0.1666666666666667 0.1666666666666667 0.1666666666666667 0.1666666666666667 0.1666666666666667 0.1666666666666667 0.1666666666666667 0.1666666666666667 0.1666666666666667 0.1666666666666667 0.1666666666666667 0.1666666666666667 0.1666666666666667 0.1666666666666667 0.1666666666666667 0.1666666666666667 0.1666666666666667 0.1666666666666667 0.1666666666666667 0.1666666666666667 0.1666666666666667 0.1666666666666667 0.1666666666666667 0.1666666666666667 0.1666666666666667 0.1666666666666667 0.1666666666666667 0.1666666666666667 0.1666666666666667 0.1666666666666667 0.1666666666666667 0.1666666666666667 0.1666666666666667 0.1666666666666667 0.1666666666666667 0.1666666666666667 0.1666666666666667 0.1666666666666667 0.1666666666666667 0.1666666666666667 0.1666666666666667 0.1666666666666667 0.1666666666666667 0.1666666666666667 0.1666666666666667 0.1666666666666667 0.1666666666666667 0.1666666666666667 0.1666666666666667 0.1666666666666667 0.1666666666666667 0.1666666666666667 0.1666666666666667 0.1666666666666667 0.1666666666666667 0.1666666666666667 0.1666666666666667 0.1666666666666667 0.1666666666666667 0.1666666666666667 0.1666666666666667 0.1666666666666667 0.1666666666666667 0.1666666666666667 0.1666666666666667 0.1666666666666667 0.1666666666666667 0.1666666666666667 0.1666666666666667 0.2121212121212121 0.4242424242424242 0.1818181818181818 0.1515151515151515 0 0.0303030303030303 0.1666666666666667 0.1666666666666667 0.1666666666666667 0.1666666666666667 0.1666666666666667 0.1666666666666667 0.1666666666666667 0.1666666666666667 0.1666666666666667 0.1666666666666667 0.1666666666666667 0.1666666666666667 0.1666666666666667 0.1666666666666667 0.1666666666666667 0.1666666666666667 0.1666666666666667 0.1666666666666667 0.1666666666666667 0.1666666666666667 0.1666666666666667 0.1666666666666667 0.1666666666666667 0.1666666666666667 0.1666666666666667 0.1666666666666667 0.1666666666666667 0.1666666666666667 0.1666666666666667 0.1666666666666667 0.1666666666666667 0.1666666666666667 0.1666666666666667 0.1666666666666667 0.1666666666666667 0.1666666666666667 0.1666666666666667 0.1666666666666667 0.1666666666666667 0.1666666666666667 0.1666666666666667 0.1666666666666667 0.1167883211678832 0.4306569343065694 0.1532846715328467 0.145985401459854 0.1532846715328467 0 0.1666666666666667 0.1666666666666667 0.1666666666666667 0.1666666666666667 0.1666666666666667 0.1666666666666667 0.1666666666666667 0.1666666666666667 0.1666666666666667 0.1666666666666667 0.1666666666666667 0.1666666666666667 0.1666666666666667 0.1666666666666667 0.1666666666666667 0.1666666666666667 0.1666666666666667 0.1666666666666667 0.1666666666666667 0.1666666666666667 0.1666666666666667 0.1666666666666667 0.1666666666666667 0.1666666666666667 0.1666666666666667 0.1666666666666667 0.1666666666666667 0.1666666666666667 0.1666666666666667 0.1666666666666667 0.1666666666666667 0.1666666666666667 0.1666666666666667 0.1666666666666667 0.1666666666666667 0.1666666666666667 0 0 0 0 0 1 0.09574468085106383 0.4361702127659575 0.2127659574468085 0.0851063829787234 0.1702127659574468 0 0.1666666666666667 0.1666666666666667 0.1666666666666667 0.1666666666666667 0.1666666666666667 0.1666666666666667 0 0 0.25 0.5 0.25 0 0 0 0 1 0 0 0 0 0.09090909090909091 0.1818181818181818 0.5454545454545455 0.1818181818181818 0 0 0 0 0 1 0 0 0 0 0 1 0.1666666666666667 0.1666666666666667 0.1666666666666667 0.1666666666666667 0.1666666666666667 0.1666666666666667 0.03623188405797102 0.2463768115942029 0.3115942028985507 0.2101449275362319 0.1956521739130435 0 0.1666666666666667 0.1666666666666667 0.1666666666666667 0.1666666666666667 0.1666666666666667 0.1666666666666667 0 0 0 0.25 0.75 0 0.1666666666666667 0.1666666666666667 0.1666666666666667 0.1666666666666667 0.1666666666666667 0.1666666666666667 0 0.1111111111111111 0 0.2222222222222222 0.3333333333333334 0.3333333333333334 0 0 0 0 0 1 0 0 0 0 0 1 0.1666666666666667 0.1666666666666667 0.1666666666666667 0.1666666666666667 0.1666666666666667 0.1666666666666667 0.06586826347305388 0.2095808383233533 0.3532934131736527 0.155688622754491 0.2155688622754491 0 0 0 1 0 0 0 0 0 0 0.5 0.5 0 0 0 0 0 0 1 0 0 0.1111111111111111 0.2222222222222222 0.5555555555555556 0.1111111111111111 0 0 0 0 0 1 0 0 0 0 0.05882352941176471 0.9411764705882353 0.1666666666666667 0.1666666666666667 0.1666666666666667 0.1666666666666667 0.1666666666666667 0.1666666666666667 0.07260726072607261 0.2904290429042905 0.396039603960396 0.099009900990099 0.1419141914191419 0 0 0.1428571428571429 0.7142857142857143 0.1428571428571429 0 0 0 0 0.2222222222222222 0.3333333333333334 0.4444444444444445 0 0 0 0 0.3333333333333333 0.5 0.1666666666666667 0 0 0 0 0.625 0.375 0 0 0 0 0.03125 0.96875 0 0 0 0 0 1 0.1666666666666667 0.1666666666666667 0.1666666666666667 0.1666666666666667 0.1666666666666667 0.1666666666666667 0.06366047745358092 0.2705570291777189 0.3421750663129974 0.1220159151193634 0.1803713527851459 0.02122015915119364 0 0.3529411764705883 0.3529411764705883 0.05882352941176471 0.2352941176470588 0 0 0 0 0.75 0.25 0 0 0 0 0.2 0.2 0.6 0 0 0 0 0 1 0 0 0 0 0.03448275862068966 0.9655172413793103 0 0 0 0 0 1 0 0 0 0 0 1 0.04444444444444444 0.2 0.2666666666666667 0.1777777777777778 0.2888888888888889 0.02222222222222222 0 0.3333333333333333 0.3333333333333333 0 0.3333333333333333 0 0 0 0 1 0 0 0.1666666666666667 0.1666666666666667 0.1666666666666667 0.1666666666666667 0.1666666666666667 0.1666666666666667 0 0 0 0 0 1 0 0 0 0 0 1 0.1666666666666667 0.1666666666666667 0.1666666666666667 0.1666666666666667 0.1666666666666667 0.1666666666666667 0.1666666666666667 0.1666666666666667 0.1666666666666667 0.1666666666666667 0.1666666666666667 0.1666666666666667 0.1666666666666667 0.1666666666666667 0.1666666666666667 0.1666666666666667 0.1666666666666667 0.1666666666666667 0.1666666666666667 0.1666666666666667 0.1666666666666667 0.1666666666666667 0.1666666666666667 0.1666666666666667 0.1666666666666667 0.1666666666666667 0.1666666666666667 0.1666666666666667 0.1666666666666667 0.1666666666666667 0.1666666666666667 0.1666666666666667 0.1666666666666667 0.1666666666666667 0.1666666666666667 0.1666666666666667 0.1666666666666667 0.1666666666666667 0.1666666666666667 0.1666666666666667 0.1666666666666667 0.1666666666666667 0.1666666666666667 0.1666666666666667 0.1666666666666667 0.1666666666666667 0.1666666666666667 0.1666666666666667 0.1666666666666667 0.1666666666666667 0.1666666666666667 0.1666666666666667 0.1666666666666667 0.1666666666666667 0.1666666666666667 0.1666666666666667 0.1666666666666667 0.1666666666666667 0.1666666666666667 0.1666666666666667 0 0 0.1666666666666667 0 0.3333333333333333 0.5 0.1666666666666667 0.1666666666666667 0.1666666666666667 0.1666666666666667 0.1666666666666667 0.1666666666666667 0.1666666666666667 0.1666666666666667 0.1666666666666667 0.1666666666666667 0.1666666666666667 0.1666666666666667 0.1666666666666667 0.1666666666666667 0.1666666666666667 0.1666666666666667 0.1666666666666667 0.1666666666666667 0.1666666666666667 0.1666666666666667 0.1666666666666667 0.1666666666666667 0.1666666666666667 0.1666666666666667 0.1666666666666667 0.1666666666666667 0.1666666666666667 0.1666666666666667 0.1666666666666667 0.1666666666666667 0.1666666666666667 0.1666666666666667 0.1666666666666667 0.1666666666666667 0.1666666666666667 0.1666666666666667 0.1666666666666667 0.1666666666666667 0.1666666666666667 0.1666666666666667 0.1666666666666667 0.1666666666666667 0 0 0 0.75 0.25 0 0.1666666666666667 0.1666666666666667 0.1666666666666667 0.1666666666666667 0.1666666666666667 0.1666666666666667 0.1666666666666667 0.1666666666666667 0.1666666666666667 0.1666666666666667 0.1666666666666667 0.1666666666666667 0.1666666666666667 0.1666666666666667 0.1666666666666667 0.1666666666666667 0.1666666666666667 0.1666666666666667 0.1666666666666667 0.1666666666666667 0.1666666666666667 0.1666666666666667 0.1666666666666667 0.1666666666666667 0.1666666666666667 0.1666666666666667 0.1666666666666667 0.1666666666666667 0.1666666666666667 0.1666666666666667 0.1666666666666667 0.1666666666666667 0.1666666666666667 0.1666666666666667 0.1666666666666667 0.1666666666666667 0.1666666666666667 0.1666666666666667 0.1666666666666667 0.1666666666666667 0.1666666666666667 0.1666666666666667 0 0.08695652173913043 0.2173913043478261 0.6956521739130435 0 0 0.1666666666666667 0.1666666666666667 0.1666666666666667 0.1666666666666667 0.1666666666666667 0.1666666666666667 0.1666666666666667 0.1666666666666667 0.1666666666666667 0.1666666666666667 0.1666666666666667 0.1666666666666667 0.1666666666666667 0.1666666666666667 0.1666666666666667 0.1666666666666667 0.1666666666666667 0.1666666666666667 0.1666666666666667 0.1666666666666667 0.1666666666666667 0.1666666666666667 0.1666666666666667 0.1666666666666667 0.1666666666666667 0.1666666666666667 0.1666666666666667 0.1666666666666667 0.1666666666666667 0.1666666666666667 0.1666666666666667 0.1666666666666667 0.1666666666666667 0.1666666666666667 0.1666666666666667 0.1666666666666667 0.1666666666666667 0.1666666666666667 0.1666666666666667 0.1666666666666667 0.1666666666666667 0.1666666666666667 0.1666666666666667 0.1666666666666667 0.1666666666666667 0.1666666666666667 0.1666666666666667 0.1666666666666667 0.1666666666666667 0.1666666666666667 0.1666666666666667 0.1666666666666667 0.1666666666666667 0.1666666666666667 0 0 0 1 0 0 0.1666666666666667 0.1666666666666667 0.1666666666666667 0.1666666666666667 0.1666666666666667 0.1666666666666667 0.1666666666666667 0.1666666666666667 0.1666666666666667 0.1666666666666667 0.1666666666666667 0.1666666666666667 0.1666666666666667 0.1666666666666667 0.1666666666666667 0.1666666666666667 0.1666666666666667 0.1666666666666667 0.1666666666666667 0.1666666666666667 0.1666666666666667 0.1666666666666667 0.1666666666666667 0.1666666666666667 0.1666666666666667 0.1666666666666667 0.1666666666666667 0.1666666666666667 0.1666666666666667 0.1666666666666667 0.1666666666666667 0.1666666666666667 0.1666666666666667 0.1666666666666667 0.1666666666666667 0.1666666666666667 0.1666666666666667 0.1666666666666667 0.1666666666666667 0.1666666666666667 0.1666666666666667 0.1666666666666667 0.1666666666666667 0.1666666666666667 0.1666666666666667 0.1666666666666667 0.1666666666666667 0.1666666666666667 0.1666666666666667 0.1666666666666667 0.1666666666666667 0.1666666666666667 0.1666666666666667 0.1666666666666667 0.1666666666666667 0.1666666666666667 0.1666666666666667 0.1666666666666667 0.1666666666666667 0.1666666666666667 0.1666666666666667 0.1666666666666667 0.1666666666666667 0.1666666666666667 0.1666666666666667 0.1666666666666667 0.1666666666666667 0.1666666666666667 0.1666666666666667 0.1666666666666667 0.1666666666666667 0.1666666666666667 0.1666666666666667 0.1666666666666667 0.1666666666666667 0.1666666666666667 0.1666666666666667 0.1666666666666667 0.1666666666666667 0.1666666666666667 0.1666666666666667 0.1666666666666667 0.1666666666666667 0.1666666666666667 0.1666666666666667 0.1666666666666667 0.1666666666666667 0.1666666666666667 0.1666666666666667 0.1666666666666667 0.1666666666666667 0.1666666666666667 0.1666666666666667 0.1666666666666667 0.1666666666666667 0.1666666666666667 0.1666666666666667 0.1666666666666667 0.1666666666666667 0.1666666666666667 0.1666666666666667 0.1666666666666667 0.1666666666666667 0.1666666666666667 0.1666666666666667 0.1666666666666667 0.1666666666666667 0.1666666666666667 0.1666666666666667 0.1666666666666667 0.1666666666666667 0.1666666666666667 0.1666666666666667 0.1666666666666667 0.1666666666666667 0.1666666666666667 0.1666666666666667 0.1666666666666667 0.1666666666666667 0.1666666666666667 0.1666666666666667 0.1666666666666667 0.1666666666666667 0.1666666666666667 0.1666666666666667 0.1666666666666667 0 0.08 0.12 0.2 0.28 0.32 0.1666666666666667 0.1666666666666667 0.1666666666666667 0.1666666666666667 0.1666666666666667 0.1666666666666667 0.1666666666666667 0.1666666666666667 0.1666666666666667 0.1666666666666667 0.1666666666666667 0.1666666666666667 0.1666666666666667 0.1666666666666667 0.1666666666666667 0.1666666666666667 0.1666666666666667 0.1666666666666667 0.1666666666666667 0.1666666666666667 0.1666666666666667 0.1666666666666667 0.1666666666666667 0.1666666666666667 0.1666666666666667 0.1666666666666667 0.1666666666666667 0.1666666666666667 0.1666666666666667 0.1666666666666667 0.1666666666666667 0.1666666666666667 0.1666666666666667 0.1666666666666667 0.1666666666666667 0.1666666666666667 0.1666666666666667 0.1666666666666667 0.1666666666666667 0.1666666666666667 0.1666666666666667 0.1666666666666667 0 0 0 0.1666666666666667 0.6666666666666666 0.1666666666666667 0.1666666666666667 0.1666666666666667 0.1666666666666667 0.1666666666666667 0.1666666666666667 0.1666666666666667 0.1666666666666667 0.1666666666666667 0.1666666666666667 0.1666666666666667 0.1666666666666667 0.1666666666666667 0.1666666666666667 0.1666666666666667 0.1666666666666667 0.1666666666666667 0.1666666666666667 0.1666666666666667 0.1666666666666667 0.1666666666666667 0.1666666666666667 0.1666666666666667 0.1666666666666667 0.1666666666666667 0.1666666666666667 0.1666666666666667 0.1666666666666667 0.1666666666666667 0.1666666666666667 0.1666666666666667 0.1666666666666667 0.1666666666666667 0.1666666666666667 0.1666666666666667 0.1666666666666667 0.1666666666666667 0.1666666666666667 0.1666666666666667 0.1666666666666667 0.1666666666666667 0.1666666666666667 0.1666666666666667 0.1666666666666667 0.1666666666666667 0.1666666666666667 0.1666666666666667 0.1666666666666667 0.1666666666666667 0.1666666666666667 0.1666666666666667 0.1666666666666667 0.1666666666666667 0.1666666666666667 0.1666666666666667 0.1666666666666667 0.1666666666666667 0.1666666666666667 0.1666666666666667 0.1666666666666667 0.1666666666666667 0.1666666666666667 0.1666666666666667 0.1666666666666667 0.1666666666666667 0.1666666666666667 0.1666666666666667 0.1666666666666667 0.1666666666666667 0.1666666666666667 0.1666666666666667 0.1666666666666667 0.1666666666666667 0.1666666666666667 0.1666666666666667 0.1666666666666667 0.1666666666666667 0.1666666666666667 0.1666666666666667 0.1666666666666667 0.1666666666666667 0.1666666666666667 0.1666666666666667 0.1666666666666667 0.1666666666666667 0.1666666666666667 0.1666666666666667 0.1666666666666667 0.1666666666666667 0.1666666666666667 0.1666666666666667 0 0 0.3333333333333333 0.3333333333333333 0.1666666666666667 0.1666666666666667 0.1666666666666667 0.1666666666666667 0.1666666666666667 0.1666666666666667 0.1666666666666667 0.1666666666666667 0.1666666666666667 0.1666666666666667 0.1666666666666667 0.1666666666666667 0.1666666666666667 0.1666666666666667 0.1666666666666667 0.1666666666666667 0.1666666666666667 0.1666666666666667 0.1666666666666667 0.1666666666666667 0.1666666666666667 0.1666666666666667 0.1666666666666667 0.1666666666666667 0.1666666666666667 0.1666666666666667 0.1666666666666667 0.1666666666666667 0.1666666666666667 0.1666666666666667 0.1666666666666667 0.1666666666666667 0.1666666666666667 0.1666666666666667 0.1666666666666667 0.1666666666666667 0.1666666666666667 0.1666666666666667 0.1666666666666667 0.1666666666666667 0.1666666666666667 0.1666666666666667 0.1666666666666667 0.1666666666666667 0.01226993865030675 0.08588957055214724 0.2699386503067485 0.1349693251533742 0.4846625766871165 0.01226993865030675 0.1666666666666667 0.1666666666666667 0.1666666666666667 0.1666666666666667 0.1666666666666667 0.1666666666666667 0.1666666666666667 0.1666666666666667 0.1666666666666667 0.1666666666666667 0.1666666666666667 0.1666666666666667 0.1666666666666667 0.1666666666666667 0.1666666666666667 0.1666666666666667 0.1666666666666667 0.1666666666666667 0.1666666666666667 0.1666666666666667 0.1666666666666667 0.1666666666666667 0.1666666666666667 0.1666666666666667 0.1666666666666667 0.1666666666666667 0.1666666666666667 0.1666666666666667 0.1666666666666667 0.1666666666666667 0.1666666666666667 0.1666666666666667 0.1666666666666667 0.1666666666666667 0.1666666666666667 0.1666666666666667 0.1666666666666667 0.1666666666666667 0.1666666666666667 0.1666666666666667 0.1666666666666667 0.1666666666666667 0.01421800947867299 0.2227488151658768 0.2985781990521327 0.1232227488151659 0.3412322274881516 0 0.1666666666666667 0.1666666666666667 0.1666666666666667 0.1666666666666667 0.1666666666666667 0.1666666666666667 0.1666666666666667 0.1666666666666667 0.1666666666666667 0.1666666666666667 0.1666666666666667 0.1666666666666667 0.1666666666666667 0.1666666666666667 0.1666666666666667 0.1666666666666667 0.1666666666666667 0.1666666666666667 0.1666666666666667 0.1666666666666667 0.1666666666666667 0.1666666666666667 0.1666666666666667 0.1666666666666667 0.1666666666666667 0.1666666666666667 0.1666666666666667 0.1666666666666667 0.1666666666666667 0.1666666666666667 0.1666666666666667 0.1666666666666667 0.1666666666666667 0.1666666666666667 0.1666666666666667 0.1666666666666667 0.1666666666666667 0.1666666666666667 0.1666666666666667 0.1666666666666667 0.1666666666666667 0.1666666666666667 0.03606557377049181 0.1934426229508197 0.2065573770491803 0.08524590163934426 0.2524590163934427 0.2262295081967213 0.1666666666666667 0.1666666666666667 0.1666666666666667 0.1666666666666667 0.1666666666666667 0.1666666666666667 0.1666666666666667 0.1666666666666667 0.1666666666666667 0.1666666666666667 0.1666666666666667 0.1666666666666667 0 0 0 0 0.8333333333333333 0.1666666666666667 0 0 0 0 0 1 0.1666666666666667 0.1666666666666667 0.1666666666666667 0.1666666666666667 0.1666666666666667 0.1666666666666667 0.1666666666666667 0.1666666666666667 0.1666666666666667 0.1666666666666667 0.1666666666666667 0.1666666666666667 0.1666666666666667 0.1666666666666667 0.1666666666666667 0.1666666666666667 0.1666666666666667 0.1666666666666667 0.01492537313432836 0.1243781094527363 0.06965174129353234 0.1194029850746269 0.2835820895522388 0.3880597014925373 0.1666666666666667 0.1666666666666667 0.1666666666666667 0.1666666666666667 0.1666666666666667 0.1666666666666667 0.1666666666666667 0.1666666666666667 0.1666666666666667 0.1666666666666667 0.1666666666666667 0.1666666666666667 0.025 0.025 0.025 0.15 0.55 0.225 0 0 0 0 0.5 0.5 0.1666666666666667 0.1666666666666667 0.1666666666666667 0.1666666666666667 0.1666666666666667 0.1666666666666667 0.1666666666666667 0.1666666666666667 0.1666666666666667 0.1666666666666667 0.1666666666666667 0.1666666666666667 0.1666666666666667 0.1666666666666667 0.1666666666666667 0.1666666666666667 0.1666666666666667 0.1666666666666667 0.01016949152542373 0.06440677966101695 0.1254237288135593 0.1016949152542373 0.1796610169491526 0.5186440677966102 0.1666666666666667 0.1666666666666667 0.1666666666666667 0.1666666666666667 0.1666666666666667 0.1666666666666667 0 0.1 0.3 0.35 0.25 0 0 0.1333333333333333 0 0.06666666666666667 0.6 0.2 0 0 0.5 0 0 0.5 0 0 0 0 0 1 0.1666666666666667 0.1666666666666667 0.1666666666666667 0.1666666666666667 0.1666666666666667 0.1666666666666667 0.1666666666666667 0.1666666666666667 0.1666666666666667 0.1666666666666667 0.1666666666666667 0.1666666666666667 0.008908685968819599 0.0311804008908686 0.1603563474387528 0.111358574610245 0.2293986636971047 0.4587973273942094 0.1666666666666667 0.1666666666666667 0.1666666666666667 0.1666666666666667 0.1666666666666667 0.1666666666666667 0.1666666666666667 0.1666666666666667 0.1666666666666667 0.1666666666666667 0.1666666666666667 0.1666666666666667 0.1666666666666667 0.1666666666666667 0.1666666666666667 0.1666666666666667 0.1666666666666667 0.1666666666666667 0.1666666666666667 0.1666666666666667 0.1666666666666667 0.1666666666666667 0.1666666666666667 0.1666666666666667 0.1666666666666667 0.1666666666666667 0.1666666666666667 0.1666666666666667 0.1666666666666667 0.1666666666666667 0.1666666666666667 0.1666666666666667 0.1666666666666667 0.1666666666666667 0.1666666666666667 0.1666666666666667 0.1666666666666667 0.1666666666666667 0.1666666666666667 0.1666666666666667 0.1666666666666667 0.1666666666666667 0.02173913043478261 0.04347826086956522 0.06521739130434782 0.06521739130434782 0.2608695652173913 0.5434782608695652 0.1666666666666667 0.1666666666666667 0.1666666666666667 0.1666666666666667 0.1666666666666667 0.1666666666666667 0.1666666666666667 0.1666666666666667 0.1666666666666667 0.1666666666666667 0.1666666666666667 0.1666666666666667 0.1666666666666667 0.1666666666666667 0.1666666666666667 0.1666666666666667 0.1666666666666667 0.1666666666666667 0.1666666666666667 0.1666666666666667 0.1666666666666667 0.1666666666666667 0.1666666666666667 0.1666666666666667 0.1666666666666667 0.1666666666666667 0.1666666666666667 0.1666666666666667 0.1666666666666667 0.1666666666666667 0.1666666666666667 0.1666666666666667 0.1666666666666667 0.1666666666666667 0.1666666666666667 0.1666666666666667 0.1666666666666667 0.1666666666666667 0.1666666666666667 0.1666666666666667 0.1666666666666667 0.1666666666666667 0.1666666666666667 0.1666666666666667 0.1666666666666667 0.1666666666666667 0.1666666666666667 0.1666666666666667 0.1666666666666667 0.1666666666666667 0.1666666666666667 0.1666666666666667 0.1666666666666667 0.1666666666666667 0.1666666666666667 0.1666666666666667 0.1666666666666667 0.1666666666666667 0.1666666666666667 0.1666666666666667 0.1666666666666667 0.1666666666666667 0.1666666666666667 0.1666666666666667 0.1666666666666667 0.1666666666666667 0.1666666666666667 0.1666666666666667 0.1666666666666667 0.1666666666666667 0.1666666666666667 0.1666666666666667 0.1666666666666667 0.1666666666666667 0.1666666666666667 0.1666666666666667 0.1666666666666667 0.1666666666666667 0.1666666666666667 0.1666666666666667 0.1666666666666667 0.1666666666666667 0.1666666666666667 0.1666666666666667 0.1666666666666667 0.1666666666666667 0.1666666666666667 0.1666666666666667 0.1666666666666667 0.1666666666666667 0.2105263157894737 0.368421052631579 0.1578947368421053 0.1052631578947368 0 0.1578947368421053 0.1666666666666667 0.1666666666666667 0.1666666666666667 0.1666666666666667 0.1666666666666667 0.1666666666666667 0.1666666666666667 0.1666666666666667 0.1666666666666667 0.1666666666666667 0.1666666666666667 0.1666666666666667 0.1666666666666667 0.1666666666666667 0.1666666666666667 0.1666666666666667 0.1666666666666667 0.1666666666666667 0.1666666666666667 0.1666666666666667 0.1666666666666667 0.1666666666666667 0.1666666666666667 0.1666666666666667 0.1666666666666667 0.1666666666666667 0.1666666666666667 0.1666666666666667 0.1666666666666667 0.1666666666666667 0.1666666666666667 0.1666666666666667 0.1666666666666667 0.1666666666666667 0.1666666666666667 0.1666666666666667 0.1666666666666667 0.1666666666666667 0.1666666666666667 0.1666666666666667 0.1666666666666667 0.1666666666666667 0.2210526315789473 0.2947368421052631 0.1894736842105263 0.1894736842105263 0.09473684210526315 0.01052631578947368 0.1666666666666667 0.1666666666666667 0.1666666666666667 0.1666666666666667 0.1666666666666667 0.1666666666666667 0.1666666666666667 0.1666666666666667 0.1666666666666667 0.1666666666666667 0.1666666666666667 0.1666666666666667 0.1666666666666667 0.1666666666666667 0.1666666666666667 0.1666666666666667 0.1666666666666667 0.1666666666666667 0.1666666666666667 0.1666666666666667 0.1666666666666667 0.1666666666666667 0.1666666666666667 0.1666666666666667 0.1666666666666667 0.1666666666666667 0.1666666666666667 0.1666666666666667 0.1666666666666667 0.1666666666666667 0.1666666666666667 0.1666666666666667 0.1666666666666667 0.1666666666666667 0.1666666666666667 0.1666666666666667 0.1666666666666667 0.1666666666666667 0.1666666666666667 0.1666666666666667 0.1666666666666667 0.1666666666666667 0.1333333333333333 0.06666666666666667 0.4 0.2 0.2 0 0.1666666666666667 0.1666666666666667 0.1666666666666667 0.1666666666666667 0.1666666666666667 0.1666666666666667 0.1666666666666667 0.1666666666666667 0.1666666666666667 0.1666666666666667 0.1666666666666667 0.1666666666666667 0.1666666666666667 0.1666666666666667 0.1666666666666667 0.1666666666666667 0.1666666666666667 0.1666666666666667 0.1666666666666667 0.1666666666666667 0.1666666666666667 0.1666666666666667 0.1666666666666667 0.1666666666666667 0.1666666666666667 0.1666666666666667 0.1666666666666667 0.1666666666666667 0.1666666666666667 0.1666666666666667 0 0 0 0 0 1 0.1666666666666667 0.1666666666666667 0.1666666666666667 0.1666666666666667 0.1666666666666667 0.1666666666666667 0.140625 0.546875 0.1875 0.09375 0.03125 0 0.1666666666666667 0.1666666666666667 0.1666666666666667 0.1666666666666667 0.1666666666666667 0.1666666666666667 0.1666666666666667 0.1666666666666667 0.1666666666666667 0.1666666666666667 0.1666666666666667 0.1666666666666667 0.1666666666666667 0.1666666666666667 0.1666666666666667 0.1666666666666667 0.1666666666666667 0.1666666666666667 0.1666666666666667 0.1666666666666667 0.1666666666666667 0.1666666666666667 0.1666666666666667 0.1666666666666667 0 0 0 0 0 1 0.1666666666666667 0.1666666666666667 0.1666666666666667 0.1666666666666667 0.1666666666666667 0.1666666666666667 0.1666666666666667 0.1666666666666667 0.1666666666666667 0.1666666666666667 0.1666666666666667 0.1666666666666667 0.1018867924528302 0.3584905660377358 0.369811320754717 0.1207547169811321 0.0490566037735849 0 0.1666666666666667 0.1666666666666667 0.1666666666666667 0.1666666666666667 0.1666666666666667 0.1666666666666667 0.1666666666666667 0.1666666666666667 0.1666666666666667 0.1666666666666667 0.1666666666666667 0.1666666666666667 0.1666666666666667 0.1666666666666667 0.1666666666666667 0.1666666666666667 0.1666666666666667 0.1666666666666667 0.1666666666666667 0.1666666666666667 0.1666666666666667 0.1666666666666667 0.1666666666666667 0.1666666666666667 0.1666666666666667 0.1666666666666667 0.1666666666666667 0.1666666666666667 0.1666666666666667 0.1666666666666667 0.1666666666666667 0.1666666666666667 0.1666666666666667 0.1666666666666667 0.1666666666666667 0.1666666666666667 0.1666666666666667 0.1666666666666667 0.1666666666666667 0.1666666666666667 0.1666666666666667 0.1666666666666667 0.2875816993464053 0.3638344226579521 0.2331154684095861 0.08061002178649238 0.03485838779956427 0 0.1666666666666667 0.1666666666666667 0.1666666666666667 0.1666666666666667 0.1666666666666667 0.1666666666666667 0 1 0 0 0 0 0.3333333333333333 0.6666666666666666 0 0 0 0 0 0.5 0.5 0 0 0 0 0.06451612903225806 0.5806451612903226 0.3548387096774194 0 0 0 0 0 0.6666666666666666 0.3333333333333333 0 0.1666666666666667 0.1666666666666667 0.1666666666666667 0.1666666666666667 0.1666666666666667 0.1666666666666667 0.1026856240126382 0.5734597156398104 0.2227488151658768 0.05055292259083728 0.04897314375987362 0.001579778830963665 0.1666666666666667 0.1666666666666667 0.1666666666666667 0.1666666666666667 0.1666666666666667 0.1666666666666667 0.1666666666666667 0.1666666666666667 0.1666666666666667 0.1666666666666667 0.1666666666666667 0.1666666666666667 0.1666666666666667 0.1666666666666667 0.1666666666666667 0.1666666666666667 0.1666666666666667 0.1666666666666667 0.1666666666666667 0.1666666666666667 0.1666666666666667 0.1666666666666667 0.1666666666666667 0.1666666666666667 0.1666666666666667 0.1666666666666667 0.1666666666666667 0.1666666666666667 0.1666666666666667 0.1666666666666667 0 0 0.3 0.7000000000000001 0 0 0 0 0 0.75 0.25 0 0.1142857142857143 0.4428571428571429 0.2857142857142857 0.07142857142857143 0.08571428571428572 0 0.1666666666666667 0.1666666666666667 0.1666666666666667 0.1666666666666667 0.1666666666666667 0.1666666666666667 0.1666666666666667 0.1666666666666667 0.1666666666666667 0.1666666666666667 0.1666666666666667 0.1666666666666667 0.1666666666666667 0.1666666666666667 0.1666666666666667 0.1666666666666667 0.1666666666666667 0.1666666666666667 0.1666666666666667 0.1666666666666667 0.1666666666666667 0.1666666666666667 0.1666666666666667 0.1666666666666667 0 0 1 0 0 0 0 0 0.3333333333333333 0.6666666666666666 0 0 0.1666666666666667 0.1666666666666667 0.1666666666666667 0.1666666666666667 0.1666666666666667 0.1666666666666667 0.1666666666666667 0.1666666666666667 0.1666666666666667 0.1666666666666667 0.1666666666666667 0.1666666666666667 0.1666666666666667 0.1666666666666667 0.1666666666666667 0.1666666666666667 0.1666666666666667 0.1666666666666667 0.1666666666666667 0.1666666666666667 0.1666666666666667 0.1666666666666667 0.1666666666666667 0.1666666666666667 0.1666666666666667 0.1666666666666667 0.1666666666666667 0.1666666666666667 0.1666666666666667 0.1666666666666667 0.1666666666666667 0.1666666666666667 0.1666666666666667 0.1666666666666667 0.1666666666666667 0.1666666666666667 0.1666666666666667 0.1666666666666667 0.1666666666666667 0.1666666666666667 0.1666666666666667 0.1666666666666667 0.1666666666666667 0.1666666666666667 0.1666666666666667 0.1666666666666667 0.1666666666666667 0.1666666666666667 0.1666666666666667 0.1666666666666667 0.1666666666666667 0.1666666666666667 0.1666666666666667 0.1666666666666667 0.1666666666666667 0.1666666666666667 0.1666666666666667 0.1666666666666667 0.1666666666666667 0.1666666666666667 0.1666666666666667 0.1666666666666667 0.1666666666666667 0.1666666666666667 0.1666666666666667 0.1666666666666667 0.1666666666666667 0.1666666666666667 0.1666666666666667 0.1666666666666667 0.1666666666666667 0.1666666666666667 0.1666666666666667 0.1666666666666667 0.1666666666666667 0.1666666666666667 0.1666666666666667 0.1666666666666667 0.1666666666666667 0.1666666666666667 0.1666666666666667 0.1666666666666667 0.1666666666666667 0.1666666666666667 0.1666666666666667 0.1666666666666667 0.1666666666666667 0.1666666666666667 0.1666666666666667 0.1666666666666667 0.1666666666666667 0.1666666666666667 0.1666666666666667 0.1666666666666667 0.1666666666666667 0.1666666666666667 0.1666666666666667 0.1666666666666667 0.1666666666666667 0.1666666666666667 0.1666666666666667 0.1666666666666667 0.1481481481481481 0.2592592592592592 0.03703703703703704 0.03703703703703704 0.5185185185185185 0 0.1666666666666667 0.1666666666666667 0.1666666666666667 0.1666666666666667 0.1666666666666667 0.1666666666666667 0.1666666666666667 0.1666666666666667 0.1666666666666667 0.1666666666666667 0.1666666666666667 0.1666666666666667 0.1666666666666667 0.1666666666666667 0.1666666666666667 0.1666666666666667 0.1666666666666667 0.1666666666666667 0.1666666666666667 0.1666666666666667 0.1666666666666667 0.1666666666666667 0.1666666666666667 0.1666666666666667 0.1666666666666667 0.1666666666666667 0.1666666666666667 0.1666666666666667 0.1666666666666667 0.1666666666666667 0.1666666666666667 0.1666666666666667 0.1666666666666667 0.1666666666666667 0.1666666666666667 0.1666666666666667 0.1666666666666667 0.1666666666666667 0.1666666666666667 0.1666666666666667 0.1666666666666667 0.1666666666666667 0 0.1666666666666667 0.1060606060606061 0.0303030303030303 0.6969696969696969 0 0.1666666666666667 0.1666666666666667 0.1666666666666667 0.1666666666666667 0.1666666666666667 0.1666666666666667 0 0 0 1 0 0 0.1666666666666667 0.1666666666666667 0.1666666666666667 0.1666666666666667 0.1666666666666667 0.1666666666666667 0.1666666666666667 0.1666666666666667 0.1666666666666667 0.1666666666666667 0.1666666666666667 0.1666666666666667 0.1666666666666667 0.1666666666666667 0.1666666666666667 0.1666666666666667 0.1666666666666667 0.1666666666666667 0.1666666666666667 0.1666666666666667 0.1666666666666667 0.1666666666666667 0.1666666666666667 0.1666666666666667 0.1666666666666667 0.1666666666666667 0.1666666666666667 0.1666666666666667 0.1666666666666667 0.1666666666666667 0.07692307692307691 0.2377622377622378 0.09090909090909091 0.04895104895104895 0.4055944055944056 0.1398601398601398 0 0 1 0 0 0 0 0.3333333333333333 0.3333333333333333 0.3333333333333333 0 0 0 0.1666666666666667 0 0.5 0.3333333333333333 0 0 0 0 0 1 0 0.1666666666666667 0.1666666666666667 0.1666666666666667 0.1666666666666667 0.1666666666666667 0.1666666666666667 0.1666666666666667 0.1666666666666667 0.1666666666666667 0.1666666666666667 0.1666666666666667 0.1666666666666667 0.1666666666666667 0.1666666666666667 0.1666666666666667 0.1666666666666667 0.1666666666666667 0.1666666666666667 0.1006711409395973 0.1208053691275168 0.06040268456375839 0.03355704697986577 0.3489932885906041 0.3355704697986578 0.3333333333333333 0.3333333333333333 0.3333333333333333 0 0 0 0 0.1428571428571429 0.4285714285714286 0.2857142857142857 0.1428571428571429 0 0 0 0 0.6666666666666666 0.3333333333333333 0 0 0 0 0 1 0 0 0 0 0 1 0 0.1666666666666667 0.1666666666666667 0.1666666666666667 0.1666666666666667 0.1666666666666667 0.1666666666666667 0.1666666666666667 0.1666666666666667 0.1666666666666667 0.1666666666666667 0.1666666666666667 0.1666666666666667 0 0.0404040404040404 0.1313131313131313 0.0303030303030303 0.3181818181818182 0.4797979797979798 0 0 1 0 0 0 0 0.4736842105263158 0.2631578947368422 0.1052631578947368 0.1578947368421053 0 0 0.5 0 0.5 0 0 0 0 0 1 0 0 0 0 0 0 1 0 0 0 0.5 0 0 0.5 0.1666666666666667 0.1666666666666667 0.1666666666666667 0.1666666666666667 0.1666666666666667 0.1666666666666667 0 0.05555555555555555 0.2333333333333333 0.07407407407407407 0.2111111111111111 0.4259259259259259 0 0 1 0 0 0 0 0.3421052631578947 0.1842105263157895 0.1052631578947369 0.1315789473684211 0.2368421052631579 0 0.1538461538461538 0.4615384615384615 0.2307692307692308 0.1538461538461538 0 0 0 0.2 0.7999999999999999 0 0 0 0 0.3333333333333333 0 0.3333333333333333 0.3333333333333333 0 0 0.3333333333333333 0 0.3333333333333333 0.3333333333333333 0.1666666666666667 0.1666666666666667 0.1666666666666667 0.1666666666666667 0.1666666666666667 0.1666666666666667 0 0 0.1428571428571429 0.1904761904761905 0.1428571428571429 0.5238095238095238 0.1666666666666667 0.1666666666666667 0.1666666666666667 0.1666666666666667 0.1666666666666667 0.1666666666666667 0 0 0 0 0 1 0 0.5 0 0.5 0 0 0.1666666666666667 0.1666666666666667 0.1666666666666667 0.1666666666666667 0.1666666666666667 0.1666666666666667 0.1666666666666667 0.1666666666666667 0.1666666666666667 0.1666666666666667 0.1666666666666667 0.1666666666666667 0.1666666666666667 0.1666666666666667 0.1666666666666667 0.1666666666666667 0.1666666666666667 0.1666666666666667 0.1666666666666667 0.1666666666666667 0.1666666666666667 0.1666666666666667 0.1666666666666667 0.1666666666666667 0.1666666666666667 0.1666666666666667 0.1666666666666667 0.1666666666666667 0.1666666666666667 0.1666666666666667 0.1666666666666667 0.1666666666666667 0.1666666666666667 0.1666666666666667 0.1666666666666667 0.1666666666666667 0.1666666666666667 0.1666666666666667 0.1666666666666667 0.1666666666666667 0.1666666666666667 0.1666666666666667 0.1666666666666667 0.1666666666666667 0.1666666666666667 0.1666666666666667 0.1666666666666667 0.1666666666666667 0.1666666666666667 0.1666666666666667 0.1666666666666667 0.1666666666666667 0.1666666666666667 0.1666666666666667 0.1666666666666667 0.1666666666666667 0.1666666666666667 0.1666666666666667 0.1666666666666667 0.1666666666666667 0.1666666666666667 0.1666666666666667 0.1666666666666667 0.1666666666666667 0.1666666666666667 0.1666666666666667 0.1666666666666667 0.1666666666666667 0.1666666666666667 0.1666666666666667 0.1666666666666667 0.1666666666666667 0.1666666666666667 0.1666666666666667 0.1666666666666667 0.1666666666666667 0.1666666666666667 0.1666666666666667 0.1666666666666667 0.1666666666666667 0.1666666666666667 0.1666666666666667 0.1666666666666667 0.1666666666666667 0.1666666666666667 0.1666666666666667 0.1666666666666667 0.1666666666666667 0.1666666666666667 0.1666666666666667 0.1666666666666667 0.1666666666666667 0.1666666666666667 0.1666666666666667 0.1666666666666667 0.1666666666666667 0.1666666666666667 0.1666666666666667 0.1666666666666667 0.1666666666666667 0.1666666666666667 0.1666666666666667 0.1666666666666667 0.1666666666666667 0.1666666666666667 0.1666666666666667 0.1666666666666667 0.1666666666666667 0.1666666666666667 0.1666666666666667 0.1666666666666667 0.1666666666666667 0.1666666666666667 0.1666666666666667 0.1666666666666667 0.1666666666666667 0.1666666666666667 0.1666666666666667 0.1666666666666667 0.1666666666666667 0.08695652173913045 0.4782608695652174 0.04347826086956522 0.3043478260869565 0.08695652173913045 0 0.1666666666666667 0.1666666666666667 0.1666666666666667 0.1666666666666667 0.1666666666666667 0.1666666666666667 0.1666666666666667 0.1666666666666667 0.1666666666666667 0.1666666666666667 0.1666666666666667 0.1666666666666667 0.1666666666666667 0.1666666666666667 0.1666666666666667 0.1666666666666667 0.1666666666666667 0.1666666666666667 0.1666666666666667 0.1666666666666667 0.1666666666666667 0.1666666666666667 0.1666666666666667 0.1666666666666667 0.1666666666666667 0.1666666666666667 0.1666666666666667 0.1666666666666667 0.1666666666666667 0.1666666666666667 0.1666666666666667 0.1666666666666667 0.1666666666666667 0.1666666666666667 0.1666666666666667 0.1666666666666667 0.1666666666666667 0.1666666666666667 0.1666666666666667 0.1666666666666667 0.1666666666666667 0.1666666666666667 0.1203703703703704 0.3333333333333334 0.287037037037037 0.06481481481481483 0.1944444444444445 0 0.1666666666666667 0.1666666666666667 0.1666666666666667 0.1666666666666667 0.1666666666666667 0.1666666666666667 0 1 0 0 0 0 0.1666666666666667 0.1666666666666667 0.1666666666666667 0.1666666666666667 0.1666666666666667 0.1666666666666667 0.1666666666666667 0.1666666666666667 0.1666666666666667 0.1666666666666667 0.1666666666666667 0.1666666666666667 0.1666666666666667 0.1666666666666667 0.1666666666666667 0.1666666666666667 0.1666666666666667 0.1666666666666667 0.1666666666666667 0.1666666666666667 0.1666666666666667 0.1666666666666667 0.1666666666666667 0.1666666666666667 0.1666666666666667 0.1666666666666667 0.1666666666666667 0.1666666666666667 0.1666666666666667 0.1666666666666667 0.07975460122699388 0.3067484662576687 0.4110429447852761 0.09202453987730061 0.1104294478527607 0 0 1 0 0 0 0 0.05263157894736842 0.2631578947368422 0.4736842105263158 0.1052631578947368 0.1052631578947368 0 0 0 0 0.5 0.5 0 0.1666666666666667 0.1666666666666667 0.1666666666666667 0.1666666666666667 0.1666666666666667 0.1666666666666667 0.1666666666666667 0.1666666666666667 0.1666666666666667 0.1666666666666667 0.1666666666666667 0.1666666666666667 0.1666666666666667 0.1666666666666667 0.1666666666666667 0.1666666666666667 0.1666666666666667 0.1666666666666667 0.1666666666666667 0.1666666666666667 0.1666666666666667 0.1666666666666667 0.1666666666666667 0.1666666666666667 0.1004366812227074 0.3973799126637554 0.3275109170305677 0.1135371179039301 0.06113537117903931 0 0 0.1666666666666667 0.6666666666666666 0.1666666666666667 0 0 0 0.4285714285714286 0.1904761904761905 0.1428571428571429 0.2380952380952381 0 0 0.3333333333333333 0.3333333333333333 0 0.3333333333333333 0 0.1666666666666667 0.1666666666666667 0.1666666666666667 0.1666666666666667 0.1666666666666667 0.1666666666666667 0.1666666666666667 0.1666666666666667 0.1666666666666667 0.1666666666666667 0.1666666666666667 0.1666666666666667 0.1666666666666667 0.1666666666666667 0.1666666666666667 0.1666666666666667 0.1666666666666667 0.1666666666666667 0.1666666666666667 0.1666666666666667 0.1666666666666667 0.1666666666666667 0.1666666666666667 0.1666666666666667 0.0730593607305936 0.4383561643835616 0.2831050228310502 0.1324200913242009 0.0730593607305936 0 0.5 0 0.5 0 0 0 0 0 0.3846153846153846 0.3846153846153846 0.2307692307692308 0 0.1666666666666667 0.1666666666666667 0.1666666666666667 0.1666666666666667 0.1666666666666667 0.1666666666666667 0 0 0 0 0 1 0 0 0 0.25 0.75 0 0.1666666666666667 0.1666666666666667 0.1666666666666667 0.1666666666666667 0.1666666666666667 0.1666666666666667 0.1666666666666667 0.1666666666666667 0.1666666666666667 0.1666666666666667 0.1666666666666667 0.1666666666666667 0.0783132530120482 0.3373493975903614 0.2409638554216868 0.1445783132530121 0.1746987951807229 0.02409638554216868 0.1666666666666667 0.1666666666666667 0.1666666666666667 0.1666666666666667 0.1666666666666667 0.1666666666666667 0 0 0.125 0.375 0.25 0.25 0 0 0 0.25 0.75 0 0 0 0 0 0 1 0 0 0.3333333333333333 0.3333333333333333 0.3333333333333333 0 0 0 0 0 0 1 0.1666666666666667 0.1666666666666667 0.1666666666666667 0.1666666666666667 0.1666666666666667 0.1666666666666667 0.06896551724137931 0.1724137931034483 0.3793103448275862 0.1379310344827586 0.1724137931034483 0.06896551724137931 0.1666666666666667 0.1666666666666667 0.1666666666666667 0.1666666666666667 0.1666666666666667 0.1666666666666667 0.1666666666666667 0.1666666666666667 0.1666666666666667 0.1666666666666667 0.1666666666666667 0.1666666666666667 0 0 0 0 0 1 0.1666666666666667 0.1666666666666667 0.1666666666666667 0.1666666666666667 0.1666666666666667 0.1666666666666667 0.1666666666666667 0.1666666666666667 0.1666666666666667 0.1666666666666667 0.1666666666666667 0.1666666666666667 0.1666666666666667 0.1666666666666667 0.1666666666666667 0.1666666666666667 0.1666666666666667 0.1666666666666667 0.1666666666666667 0.1666666666666667 0.1666666666666667 0.1666666666666667 0.1666666666666667 0.1666666666666667 0.1666666666666667 0.1666666666666667 0.1666666666666667 0.1666666666666667 0.1666666666666667 0.1666666666666667 0.1666666666666667 0.1666666666666667 0.1666666666666667 0.1666666666666667 0.1666666666666667 0.1666666666666667 0.1666666666666667 0.1666666666666667 0.1666666666666667 0.1666666666666667 0.1666666666666667 0.1666666666666667 0.1666666666666667 0.1666666666666667 0.1666666666666667 0.1666666666666667 0.1666666666666667 0.1666666666666667 0.1666666666666667 0.1666666666666667 0.1666666666666667 0.1666666666666667 0.1666666666666667 0.1666666666666667 0.1666666666666667 0.1666666666666667 0.1666666666666667 0.1666666666666667 0.1666666666666667 0.1666666666666667 0.1666666666666667 0.1666666666666667 0.1666666666666667 0.1666666666666667 0.1666666666666667 0.1666666666666667 0.1666666666666667 0.1666666666666667 0.1666666666666667 0.1666666666666667 0.1666666666666667 0.1666666666666667 0.1666666666666667 0.1666666666666667 0.1666666666666667 0.1666666666666667 0.1666666666666667 0.1666666666666667 0.1666666666666667 0.1666666666666667 0.1666666666666667 0.1666666666666667 0.1666666666666667 0.1666666666666667 0.1666666666666667 0.1666666666666667 0.1666666666666667 0.1666666666666667 0.1666666666666667 0.1666666666666667 0.1666666666666667 0.1666666666666667 0.1666666666666667 0.1666666666666667 0.1666666666666667 0.1666666666666667 0.1666666666666667 0.1666666666666667 0.1666666666666667 0.1666666666666667 0.1666666666666667 0.1666666666666667 0.1666666666666667 0.1666666666666667 0.1666666666666667 0.1666666666666667 0.1666666666666667 0.1666666666666667 0.1666666666666667 0.1666666666666667 0.1666666666666667 0.1666666666666667 0.1666666666666667 0.1666666666666667 0.1666666666666667 0.1666666666666667 0.1666666666666667 0.1666666666666667 0.1666666666666667 0.1666666666666667 0.2602739726027397 0.273972602739726 0.2602739726027397 0.08219178082191782 0.1232876712328767 0 0.1666666666666667 0.1666666666666667 0.1666666666666667 0.1666666666666667 0.1666666666666667 0.1666666666666667 0 0 0 0 1 0 0.1666666666666667 0.1666666666666667 0.1666666666666667 0.1666666666666667 0.1666666666666667 0.1666666666666667 0.1666666666666667 0.1666666666666667 0.1666666666666667 0.1666666666666667 0.1666666666666667 0.1666666666666667 0.1666666666666667 0.1666666666666667 0.1666666666666667 0.1666666666666667 0.1666666666666667 0.1666666666666667 0.1666666666666667 0.1666666666666667 0.1666666666666667 0.1666666666666667 0.1666666666666667 0.1666666666666667 0.1666666666666667 0.1666666666666667 0.1666666666666667 0.1666666666666667 0.1666666666666667 0.1666666666666667 0.1604095563139932 0.4334470989761091 0.2559726962457338 0.068259385665529 0.0819112627986348 0 0.2857142857142857 0.4285714285714286 0.2857142857142857 0 0 0 0 0 0.25 0.6666666666666666 0.08333333333333333 0 0.1666666666666667 0.1666666666666667 0.1666666666666667 0.1666666666666667 0.1666666666666667 0.1666666666666667 0.1666666666666667 0.1666666666666667 0.1666666666666667 0.1666666666666667 0.1666666666666667 0.1666666666666667 0.1666666666666667 0.1666666666666667 0.1666666666666667 0.1666666666666667 0.1666666666666667 0.1666666666666667 0 0 0 0 0 1 0 0 0 0 0 1 0.1601049868766405 0.4278215223097114 0.2703412073490814 0.08661417322834648 0.05511811023622049 0 0.5 0 0.5 0 0 0 0.1666666666666667 0.1666666666666667 0.1666666666666667 0.1666666666666667 0.1666666666666667 0.1666666666666667 0.1666666666666667 0.1666666666666667 0.1666666666666667 0.1666666666666667 0.1666666666666667 0.1666666666666667 0.1666666666666667 0.1666666666666667 0.1666666666666667 0.1666666666666667 0.1666666666666667 0.1666666666666667 0 0 0 0 0.5 0.5 0 0 0 0 0.125 0.875 0 0 0 0 0 1 0.1536388140161725 0.3773584905660377 0.3396226415094339 0.05390835579514824 0.07547169811320754 0 0.1666666666666667 0.1666666666666667 0.1666666666666667 0.1666666666666667 0.1666666666666667 0.1666666666666667 0.1666666666666667 0.1666666666666667 0.1666666666666667 0.1666666666666667 0.1666666666666667 0.1666666666666667 0.1666666666666667 0.1666666666666667 0.1666666666666667 0.1666666666666667 0.1666666666666667 0.1666666666666667 0.1666666666666667 0.1666666666666667 0.1666666666666667 0.1666666666666667 0.1666666666666667 0.1666666666666667 0 0 0 0.09523809523809525 0.1428571428571429 0.761904761904762 0 0 0 0 0 1 0 0 0 0 0 1 0.09999999999999999 0.372 0.266 0.126 0.136 0 0.1666666666666667 0.1666666666666667 0.1666666666666667 0.1666666666666667 0.1666666666666667 0.1666666666666667 0.1666666666666667 0.1666666666666667 0.1666666666666667 0.1666666666666667 0.1666666666666667 0.1666666666666667 0.1666666666666667 0.1666666666666667 0.1666666666666667 0.1666666666666667 0.1666666666666667 0.1666666666666667 0.1666666666666667 0.1666666666666667 0.1666666666666667 0.1666666666666667 0.1666666666666667 0.1666666666666667 0 0 0 0.1111111111111111 0.3333333333333333 0.5555555555555555 0 0 0 0 0.1111111111111111 0.888888888888889 0.1666666666666667 0.1666666666666667 0.1666666666666667 0.1666666666666667 0.1666666666666667 0.1666666666666667 0.09809264305177111 0.2970027247956403 0.1743869209809264 0.2479564032697548 0.1389645776566758 0.04359673024523161 0.1666666666666667 0.1666666666666667 0.1666666666666667 0.1666666666666667 0.1666666666666667 0.1666666666666667 0.1666666666666667 0.1666666666666667 0.1666666666666667 0.1666666666666667 0.1666666666666667 0.1666666666666667 0.1666666666666667 0.1666666666666667 0.1666666666666667 0.1666666666666667 0.1666666666666667 0.1666666666666667 0 0 0 0 0 1 0 0 0 0 0.06666666666666667 0.9333333333333334 0 0 0 0 0 1 0.1666666666666667 0.1666666666666667 0.1666666666666667 0.1666666666666667 0.1666666666666667 0.1666666666666667 0.08510638297872339 0.4042553191489362 0.08510638297872339 0.1702127659574468 0.1914893617021277 0.06382978723404255 0.1666666666666667 0.1666666666666667 0.1666666666666667 0.1666666666666667 0.1666666666666667 0.1666666666666667 0.1666666666666667 0.1666666666666667 0.1666666666666667 0.1666666666666667 0.1666666666666667 0.1666666666666667 0.1666666666666667 0.1666666666666667 0.1666666666666667 0.1666666666666667 0.1666666666666667 0.1666666666666667 0 0 0 0 1 0 0 0 0 0 0 1 0.1666666666666667 0.1666666666666667 0.1666666666666667 0.1666666666666667 0.1666666666666667 0.1666666666666667 0.1666666666666667 0.1666666666666667 0.1666666666666667 0.1666666666666667 0.1666666666666667 0.1666666666666667 0.1666666666666667 0.1666666666666667 0.1666666666666667 0.1666666666666667 0.1666666666666667 0.1666666666666667 0.1666666666666667 0.1666666666666667 0.1666666666666667 0.1666666666666667 0.1666666666666667 0.1666666666666667 0.1666666666666667 0.1666666666666667 0.1666666666666667 0.1666666666666667 0.1666666666666667 0.1666666666666667 0.1666666666666667 0.1666666666666667 0.1666666666666667 0.1666666666666667 0.1666666666666667 0.1666666666666667 0.1666666666666667 0.1666666666666667 0.1666666666666667 0.1666666666666667 0.1666666666666667 0.1666666666666667 0.1666666666666667 0.1666666666666667 0.1666666666666667 0.1666666666666667 0.1666666666666667 0.1666666666666667 0.1666666666666667 0.1666666666666667 0.1666666666666667 0.1666666666666667 0.1666666666666667 0.1666666666666667 0.1666666666666667 0.1666666666666667 0.1666666666666667 0.1666666666666667 0.1666666666666667 0.1666666666666667 0.1666666666666667 0.1666666666666667 0.1666666666666667 0.1666666666666667 0.1666666666666667 0.1666666666666667 0.1666666666666667 0.1666666666666667 0.1666666666666667 0.1666666666666667 0.1666666666666667 0.1666666666666667 0.1666666666666667 0.1666666666666667 0.1666666666666667 0.1666666666666667 0.1666666666666667 0.1666666666666667 0.1666666666666667 0.1666666666666667 0.1666666666666667 0.1666666666666667 0.1666666666666667 0.1666666666666667 0.1666666666666667 0.1666666666666667 0.1666666666666667 0.1666666666666667 0.1666666666666667 0.1666666666666667 0.1666666666666667 0.1666666666666667 0.1666666666666667 0.1666666666666667 0.1666666666666667 0.1666666666666667 0.1666666666666667 0.1666666666666667 0.1666666666666667 0.1666666666666667 0.1666666666666667 0.1666666666666667 0.1666666666666667 0.1666666666666667 0.1666666666666667 0.1666666666666667 0.1666666666666667 0.1666666666666667 0.1666666666666667 0.1666666666666667 0.1666666666666667 0.1666666666666667 0.1666666666666667 0.1666666666666667 0.1666666666666667 0.1666666666666667 0.1666666666666667 0.1666666666666667 0.1666666666666667 0.1666666666666667 0.1666666666666667 0.1666666666666667 0.1666666666666667 0.1666666666666667 0.1666666666666667 0.1666666666666667 0.1666666666666667 0.1666666666666667 0.1666666666666667 0.1666666666666667 0.1666666666666667 0.1666666666666667 0.1666666666666667 0.1666666666666667 0.1666666666666667 0.1666666666666667 0.1666666666666667 0.1666666666666667 0.1666666666666667 0.1666666666666667 0.1666666666666667 0.1666666666666667 0.1666666666666667 0.1666666666666667 0.1666666666666667 0.1666666666666667 0.1666666666666667 0.1666666666666667 0.1666666666666667 0.1666666666666667 0.1666666666666667 0.1666666666666667 0.1666666666666667 0.1666666666666667 0.1666666666666667 0.1666666666666667 0.7999999999999999 0.2 0 0 0 0 0.1666666666666667 0.1666666666666667 0.1666666666666667 0.1666666666666667 0.1666666666666667 0.1666666666666667 0.1666666666666667 0.1666666666666667 0.1666666666666667 0.1666666666666667 0.1666666666666667 0.1666666666666667 0.1666666666666667 0.1666666666666667 0.1666666666666667 0.1666666666666667 0.1666666666666667 0.1666666666666667 0.1666666666666667 0.1666666666666667 0.1666666666666667 0.1666666666666667 0.1666666666666667 0.1666666666666667 0.1666666666666667 0.1666666666666667 0.1666666666666667 0.1666666666666667 0.1666666666666667 0.1666666666666667 0.1666666666666667 0.1666666666666667 0.1666666666666667 0.1666666666666667 0.1666666666666667 0.1666666666666667 0.1666666666666667 0.1666666666666667 0.1666666666666667 0.1666666666666667 0.1666666666666667 0.1666666666666667 0.6756756756756757 0.2644787644787645 0.04247104247104247 0.009652509652509652 0.007722007722007723 0 0.1666666666666667 0.1666666666666667 0.1666666666666667 0.1666666666666667 0.1666666666666667 0.1666666666666667 0.1666666666666667 0.1666666666666667 0.1666666666666667 0.1666666666666667 0.1666666666666667 0.1666666666666667 0.1666666666666667 0.1666666666666667 0.1666666666666667 0.1666666666666667 0.1666666666666667 0.1666666666666667 0 0 0 1 0 0 0 0 0 0 0.5 0.5 0.1666666666666667 0.1666666666666667 0.1666666666666667 0.1666666666666667 0.1666666666666667 0.1666666666666667 0.1666666666666667 0.1666666666666667 0.1666666666666667 0.1666666666666667 0.1666666666666667 0.1666666666666667 0.5697329376854599 0.3160237388724036 0.07566765578635014 0.02373887240356083 0.01483679525222552 0 0 0.875 0.125 0 0 0 0 0.5384615384615384 0.4615384615384615 0 0 0 0 0.1666666666666667 0.1666666666666667 0.1666666666666667 0.5 0 0 0.3333333333333333 0.6666666666666666 0 0 0 0 0 0.04761904761904762 0.1428571428571429 0.2380952380952381 0.5714285714285714 0 0 0 0 0.2 0.8 0 0 0 0 0 1 0.3460526315789474 0.4657894736842105 0.1355263157894737 0.01973684210526316 0.03289473684210527 0 0.1666666666666667 0.1666666666666667 0.1666666666666667 0.1666666666666667 0.1666666666666667 0.1666666666666667 0.2 0.4 0.4 0 0 0 0 0 1 0 0 0 0 0 0.5 0.5 0 0 0 0 0.1428571428571429 0 0.2857142857142857 0.5714285714285714 0.1666666666666667 0.1666666666666667 0.1666666666666667 0.1666666666666667 0.1666666666666667 0.1666666666666667 0.1666666666666667 0.1666666666666667 0.1666666666666667 0.1666666666666667 0.1666666666666667 0.1666666666666667 0.3110367892976588 0.4637681159420289 0.1538461538461539 0.03010033444816053 0.04124860646599777 0 0.2 0.6 0 0 0 0.2 0 0 0 1 0 0 0.1666666666666667 0.1666666666666667 0.1666666666666667 0.1666666666666667 0.1666666666666667 0.1666666666666667 0.1666666666666667 0.1666666666666667 0.1666666666666667 0.1666666666666667 0.1666666666666667 0.1666666666666667 0.1666666666666667 0.1666666666666667 0.1666666666666667 0.1666666666666667 0.1666666666666667 0.1666666666666667 0.1666666666666667 0.1666666666666667 0.1666666666666667 0.1666666666666667 0.1666666666666667 0.1666666666666667 0.1666666666666667 0.1666666666666667 0.1666666666666667 0.1666666666666667 0.1666666666666667 0.1666666666666667 0.2149532710280374 0.4859813084112149 0.1962616822429907 0.06542056074766355 0.03738317757009346 0 0.1666666666666667 0.1666666666666667 0.1666666666666667 0.1666666666666667 0.1666666666666667 0.1666666666666667 0.1666666666666667 0.1666666666666667 0.1666666666666667 0.1666666666666667 0.1666666666666667 0.1666666666666667 0.1666666666666667 0.1666666666666667 0.1666666666666667 0.1666666666666667 0.1666666666666667 0.1666666666666667 0.1666666666666667 0.1666666666666667 0.1666666666666667 0.1666666666666667 0.1666666666666667 0.1666666666666667 0.1666666666666667 0.1666666666666667 0.1666666666666667 0.1666666666666667 0.1666666666666667 0.1666666666666667 0.1666666666666667 0.1666666666666667 0.1666666666666667 0.1666666666666667 0.1666666666666667 0.1666666666666667 0.1666666666666667 0.1666666666666667 0.1666666666666667 0.1666666666666667 0.1666666666666667 0.1666666666666667 0.1666666666666667 0.1666666666666667 0.1666666666666667 0.1666666666666667 0.1666666666666667 0.1666666666666667 0.1666666666666667 0.1666666666666667 0.1666666666666667 0.1666666666666667 0.1666666666666667 0.1666666666666667 0.1666666666666667 0.1666666666666667 0.1666666666666667 0.1666666666666667 0.1666666666666667 0.1666666666666667 0.1666666666666667 0.1666666666666667 0.1666666666666667 0.1666666666666667 0.1666666666666667 0.1666666666666667 0.1666666666666667 0.1666666666666667 0.1666666666666667 0.1666666666666667 0.1666666666666667 0.1666666666666667 0.1666666666666667 0.1666666666666667 0.1666666666666667 0.1666666666666667 0.1666666666666667 0.1666666666666667 0.1666666666666667 0.1666666666666667 0.1666666666666667 0.1666666666666667 0.1666666666666667 0.1666666666666667 0.1666666666666667 0.1666666666666667 0.1666666666666667 0.1666666666666667 0.1666666666666667 0.1666666666666667 0.1666666666666667 0.1666666666666667 0.1666666666666667 0.1666666666666667 0.1666666666666667 0.1666666666666667 0.1666666666666667 0.1666666666666667 0.1666666666666667 0.1666666666666667 0.1666666666666667 0.1666666666666667 0.1666666666666667 0.1666666666666667 0.1666666666666667 0.1666666666666667 0.1666666666666667 0.1666666666666667 0.1666666666666667 0.1666666666666667 0.1666666666666667 0.1666666666666667 0.1666666666666667 0.1666666666666667 0.1666666666666667 0.1666666666666667 0.1666666666666667 0.1666666666666667 0.1666666666666667 0.1666666666666667 0.1666666666666667 0.1666666666666667 0.1666666666666667 0.1666666666666667 0.1666666666666667 0.1666666666666667 0.1666666666666667 0.1666666666666667 0.1666666666666667 0.1666666666666667 0.1666666666666667 0.1666666666666667 0.1666666666666667 0.1666666666666667 0.1666666666666667 0.1666666666666667 0.1666666666666667 0.1666666666666667 0.1666666666666667 0.1666666666666667 0.1666666666666667 0.1666666666666667 0.1666666666666667 0.1666666666666667 0.1666666666666667 0.1666666666666667 0.1666666666666667 0.1666666666666667 0.1666666666666667 0.1666666666666667 0.1666666666666667 0.1666666666666667 0.1666666666666667 0.1666666666666667 0.1666666666666667 0.1666666666666667 0.1666666666666667 0.1666666666666667 0.1666666666666667 0.1666666666666667 0.1666666666666667 0.1666666666666667 0.1666666666666667 0.1666666666666667 0.1666666666666667 0.1666666666666667 0.1666666666666667 0.1666666666666667 0.1666666666666667 0.1666666666666667 0.1666666666666667 0.1666666666666667 0.1666666666666667 0.1666666666666667 0.1666666666666667 0.1666666666666667 0.1666666666666667 0.1666666666666667 0.1666666666666667 0.1666666666666667 0.1666666666666667 0.1666666666666667 0.1666666666666667 0.1666666666666667 0.1666666666666667 0.1666666666666667 0.5 0.5 0 0 0 0 0.1666666666666667 0.1666666666666667 0.1666666666666667 0.1666666666666667 0.1666666666666667 0.1666666666666667 0.1666666666666667 0.1666666666666667 0.1666666666666667 0.1666666666666667 0.1666666666666667 0.1666666666666667 0.1666666666666667 0.1666666666666667 0.1666666666666667 0.1666666666666667 0.1666666666666667 0.1666666666666667 0 0 0 0 0.7999999999999999 0.2 0.1666666666666667 0.1666666666666667 0.1666666666666667 0.1666666666666667 0.1666666666666667 0.1666666666666667 0.1666666666666667 0.1666666666666667 0.1666666666666667 0.1666666666666667 0.1666666666666667 0.1666666666666667 0.1666666666666667 0.1666666666666667 0.1666666666666667 0.1666666666666667 0.1666666666666667 0.1666666666666667 0.2708333333333333 0.5416666666666666 0.1458333333333333 0.04166666666666666 0 0 0.1666666666666667 0.1666666666666667 0.1666666666666667 0.1666666666666667 0.1666666666666667 0.1666666666666667 0.1666666666666667 0.1666666666666667 0.1666666666666667 0.1666666666666667 0.1666666666666667 0.1666666666666667 0.1666666666666667 0.1666666666666667 0.1666666666666667 0.1666666666666667 0.1666666666666667 0.1666666666666667 0.1666666666666667 0.1666666666666667 0.1666666666666667 0.1666666666666667 0.1666666666666667 0.1666666666666667 0.1666666666666667 0.1666666666666667 0.1666666666666667 0.1666666666666667 0.1666666666666667 0.1666666666666667 0.1666666666666667 0.1666666666666667 0.1666666666666667 0.1666666666666667 0.1666666666666667 0.1666666666666667 0.1666666666666667 0.1666666666666667 0.1666666666666667 0.1666666666666667 0.1666666666666667 0.1666666666666667 0.5111111111111112 0.4444444444444444 0.02222222222222222 0.02222222222222222 0 0 0.1666666666666667 0.1666666666666667 0.1666666666666667 0.1666666666666667 0.1666666666666667 0.1666666666666667 0.1666666666666667 0.1666666666666667 0.1666666666666667 0.1666666666666667 0.1666666666666667 0.1666666666666667 0.1666666666666667 0.1666666666666667 0.1666666666666667 0.1666666666666667 0.1666666666666667 0.1666666666666667 0.1666666666666667 0.1666666666666667 0.1666666666666667 0.1666666666666667 0.1666666666666667 0.1666666666666667 0.1666666666666667 0.1666666666666667 0.1666666666666667 0.1666666666666667 0.1666666666666667 0.1666666666666667 0.1666666666666667 0.1666666666666667 0.1666666666666667 0.1666666666666667 0.1666666666666667 0.1666666666666667 0.1666666666666667 0.1666666666666667 0.1666666666666667 0.1666666666666667 0.1666666666666667 0.1666666666666667 0.4772727272727273 0.5 0 0.02272727272727273 0 0 0.1666666666666667 0.1666666666666667 0.1666666666666667 0.1666666666666667 0.1666666666666667 0.1666666666666667 0.1666666666666667 0.1666666666666667 0.1666666666666667 0.1666666666666667 0.1666666666666667 0.1666666666666667 0.1666666666666667 0.1666666666666667 0.1666666666666667 0.1666666666666667 0.1666666666666667 0.1666666666666667 0.1666666666666667 0.1666666666666667 0.1666666666666667 0.1666666666666667 0.1666666666666667 0.1666666666666667 0.1666666666666667 0.1666666666666667 0.1666666666666667 0.1666666666666667 0.1666666666666667 0.1666666666666667 0.1666666666666667 0.1666666666666667 0.1666666666666667 0.1666666666666667 0.1666666666666667 0.1666666666666667 0.1666666666666667 0.1666666666666667 0.1666666666666667 0.1666666666666667 0.1666666666666667 0.1666666666666667 0.390625 0.34375 0.0625 0.171875 0.03125 0 0.1666666666666667 0.1666666666666667 0.1666666666666667 0.1666666666666667 0.1666666666666667 0.1666666666666667 0.1666666666666667 0.1666666666666667 0.1666666666666667 0.1666666666666667 0.1666666666666667 0.1666666666666667 0.1666666666666667 0.1666666666666667 0.1666666666666667 0.1666666666666667 0.1666666666666667 0.1666666666666667 0.1666666666666667 0.1666666666666667 0.1666666666666667 0.1666666666666667 0.1666666666666667 0.1666666666666667 0.1666666666666667 0.1666666666666667 0.1666666666666667 0.1666666666666667 0.1666666666666667 0.1666666666666667 0.1666666666666667 0.1666666666666667 0.1666666666666667 0.1666666666666667 0.1666666666666667 0.1666666666666667 0.1666666666666667 0.1666666666666667 0.1666666666666667 0.1666666666666667 0.1666666666666667 0.1666666666666667 0 0 1 0 0 0 0.1666666666666667 0.1666666666666667 0.1666666666666667 0.1666666666666667 0.1666666666666667 0.1666666666666667 0.1666666666666667 0.1666666666666667 0.1666666666666667 0.1666666666666667 0.1666666666666667 0.1666666666666667 0.1666666666666667 0.1666666666666667 0.1666666666666667 0.1666666666666667 0.1666666666666667 0.1666666666666667 0.1666666666666667 0.1666666666666667 0.1666666666666667 0.1666666666666667 0.1666666666666667 0.1666666666666667 0.1666666666666667 0.1666666666666667 0.1666666666666667 0.1666666666666667 0.1666666666666667 0.1666666666666667 0.1666666666666667 0.1666666666666667 0.1666666666666667 0.1666666666666667 0.1666666666666667 0.1666666666666667 0.1666666666666667 0.1666666666666667 0.1666666666666667 0.1666666666666667 0.1666666666666667 0.1666666666666667 0.1666666666666667 0.1666666666666667 0.1666666666666667 0.1666666666666667 0.1666666666666667 0.1666666666666667 0.1666666666666667 0.1666666666666667 0.1666666666666667 0.1666666666666667 0.1666666666666667 0.1666666666666667 0.1666666666666667 0.1666666666666667 0.1666666666666667 0.1666666666666667 0.1666666666666667 0.1666666666666667 0.1666666666666667 0.1666666666666667 0.1666666666666667 0.1666666666666667 0.1666666666666667 0.1666666666666667 0.1666666666666667 0.1666666666666667 0.1666666666666667 0.1666666666666667 0.1666666666666667 0.1666666666666667 0.1666666666666667 0.1666666666666667 0.1666666666666667 0.1666666666666667 0.1666666666666667 0.1666666666666667 0.1666666666666667 0.1666666666666667 0.1666666666666667 0.1666666666666667 0.1666666666666667 0.1666666666666667 0.1666666666666667 0.1666666666666667 0.1666666666666667 0.1666666666666667 0.1666666666666667 0.1666666666666667 0 0.5 0.3571428571428572 0.07142857142857143 0.07142857142857143 0 0.1666666666666667 0.1666666666666667 0.1666666666666667 0.1666666666666667 0.1666666666666667 0.1666666666666667 0.1666666666666667 0.1666666666666667 0.1666666666666667 0.1666666666666667 0.1666666666666667 0.1666666666666667 0.1666666666666667 0.1666666666666667 0.1666666666666667 0.1666666666666667 0.1666666666666667 0.1666666666666667 0.1666666666666667 0.1666666666666667 0.1666666666666667 0.1666666666666667 0.1666666666666667 0.1666666666666667 0.1666666666666667 0.1666666666666667 0.1666666666666667 0.1666666666666667 0.1666666666666667 0.1666666666666667 0.1666666666666667 0.1666666666666667 0.1666666666666667 0.1666666666666667 0.1666666666666667 0.1666666666666667 0.1666666666666667 0.1666666666666667 0.1666666666666667 0.1666666666666667 0.1666666666666667 0.1666666666666667 0.0703125 0.3046875 0.28125 0.109375 0.234375 0 0.1666666666666667 0.1666666666666667 0.1666666666666667 0.1666666666666667 0.1666666666666667 0.1666666666666667 0.1666666666666667 0.1666666666666667 0.1666666666666667 0.1666666666666667 0.1666666666666667 0.1666666666666667 0.1666666666666667 0.1666666666666667 0.1666666666666667 0.1666666666666667 0.1666666666666667 0.1666666666666667 0.1666666666666667 0.1666666666666667 0.1666666666666667 0.1666666666666667 0.1666666666666667 0.1666666666666667 0.1666666666666667 0.1666666666666667 0.1666666666666667 0.1666666666666667 0.1666666666666667 0.1666666666666667 0 0 0 0 0 1 0.1666666666666667 0.1666666666666667 0.1666666666666667 0.1666666666666667 0.1666666666666667 0.1666666666666667 0.03448275862068965 0.1954022988505747 0.3563218390804597 0.2068965517241379 0.2068965517241379 0 0.1666666666666667 0.1666666666666667 0.1666666666666667 0.1666666666666667 0.1666666666666667 0.1666666666666667 0.1666666666666667 0.1666666666666667 0.1666666666666667 0.1666666666666667 0.1666666666666667 0.1666666666666667 0.1666666666666667 0.1666666666666667 0.1666666666666667 0.1666666666666667 0.1666666666666667 0.1666666666666667 0.1666666666666667 0.1666666666666667 0.1666666666666667 0.1666666666666667 0.1666666666666667 0.1666666666666667 0.1666666666666667 0.1666666666666667 0.1666666666666667 0.1666666666666667 0.1666666666666667 0.1666666666666667 0 0 0 0 0.1481481481481481 0.8518518518518518 0.1666666666666667 0.1666666666666667 0.1666666666666667 0.1666666666666667 0.1666666666666667 0.1666666666666667 0.06930693069306931 0.2178217821782178 0.3861386138613861 0.06930693069306931 0.2574257425742574 0 0.1666666666666667 0.1666666666666667 0.1666666666666667 0.1666666666666667 0.1666666666666667 0.1666666666666667 0.1666666666666667 0.1666666666666667 0.1666666666666667 0.1666666666666667 0.1666666666666667 0.1666666666666667 0 0 1 0 0 0 0.1666666666666667 0.1666666666666667 0.1666666666666667 0.1666666666666667 0.1666666666666667 0.1666666666666667 0 0 0 0 0 1 0 0 0 0.04444444444444444 0.06666666666666667 0.8888888888888888 0.1666666666666667 0.1666666666666667 0.1666666666666667 0.1666666666666667 0.1666666666666667 0.1666666666666667 0.01052631578947368 0.1052631578947368 0.312280701754386 0.2035087719298246 0.3684210526315789 0 0.1666666666666667 0.1666666666666667 0.1666666666666667 0.1666666666666667 0.1666666666666667 0.1666666666666667 0.1666666666666667 0.1666666666666667 0.1666666666666667 0.1666666666666667 0.1666666666666667 0.1666666666666667 0.1666666666666667 0.1666666666666667 0.1666666666666667 0.1666666666666667 0.1666666666666667 0.1666666666666667 0 0 0 0 1 0 0 0 0 0 0.1176470588235294 0.8823529411764706 0 0 0 0 